/**
 * @author Renzo Andri (andrire)
 * @author Gianna Paulin (pauling)
 *
 *----------------------------------------------------------------------------*
 * Copyright (C) 2019-2020 ETH Zurich, Switzerland                            *
 * SPDX-License-Identifier: Apache-2.0                                        *
 *                                                                            *
 * Licensed under the Apache License, Version 2.0 (the "License");            *
 * you may not use this file except in compliance with the License.           *
 * You may obtain a copy of the License at                                    *
 *                                                                            *
 * http://www.apache.org/licenses/LICENSE-2.0                                 *
 *                                                                            *
 * Unless required by applicable law or agreed to in writing, software        *
 * distributed under the License is distributed on an "AS IS" BASIS,          *
 * WITHOUT WARRANTIES OR CONDITIONS OF ANY KIND, either express or implied.   *
 * See the License for the specific language governing permissions and        *
 * limitations under the License.                                             *
 *----------------------------------------------------------------------------*
 */
#ifndef BENCHMARK_HEADER_FILE 
#define BENCHMARK_HEADER_FILE

#include "general.h"
#include "config.h"
#include "config_profiling.h"

#define N_INP 162
#define N_OUT 162

L2_DATA data_t m_In[162] = {-25489,  7493,-15486, 28431,-27625, -4383,-21184, 23864, 30599,-14319, -19447, 30214,-11671, 11511,-19772,-29452, -6860,-27635,  6686, -2090,  -5932,  6206,  5392, 12646, 10360, 32025,-30441, 32387,  4466,-16639, -13742,-22474,-11204, -4039, 14667, -4966,-19560, -6223,  6823,-20089,  18092,-24174,-11865,  7623,-32760,  8531,  2574,-18621,   133, -5705,   8264, -7277,-21771,-30488,-29311, 30571,-29587,-29044,  -371,-14349, -20965,-15284,-26494, 18114, 31693,-10536,-30782, -8669, 28347,-10711, -19060,-13095,  2863,-21714, -5927, 13209,-24829, 21916,-18050, 15381,  26398, 22964, 25707, -5995, -7540,  4110,  9796, 24308, 30712, 30043,  -3117, 27755,  9936,  6223,   988, 26066,  6096,  -959, -9506,-24236, -13850, 12828, 25582, -6082,-18378,  9839, 15075, 15909, -4870, 29920,  22735, 16868, 11017,-25681,-25537,-16877,-25416,  6257, -5010, 20193, -31533, 26431,-15416,-22214,-17699, -8222,-20244,-20698,   914, -1130,  -1888, 30429, 27420,  8229,-17342,  5404,-12107,-11401, 20471, -8356,   8740,  7856,-10810,  5253,-23859,  2534, 12020,-10250,-27345,  2398, -21456, -9121,-32555,-13992, -4625, 10999,  8407,  7474, 15546, 20046, -29508, 18405 }; 
L2_DATA data_t m_lstm_h[162] = { 23087, 22996, 16922, -9339, 28745, 25289,  4745, 28067, 31998, -6074, -29416,-23045,-22742,  8088,-12743, 32125,-18295, -4029,-11091, 25992, -14864,  -915,  9236, 16621, 21611, 18694, 11970,-16203,-11865,  8266,    947,-29272, 18634, 19858,-10994,-29099,-11372, 12392,-26579, 30045,  18026, 19698, 29561,-23015, 31247,-13511, -5314,-21899,-13457,   -19,   8254, -9271,-19186, 24218, 14050,-10862,-17583, 19898,-24662,-10756, -12432,-26390, 30983,  2353, 18390,-15240,-31826, -4253,  3427, 31203, -26824, 28750, 15387,-22329, -5142,-21860,-32029,-21631,  2149, -3720, -29040, -6974, 30687,    10,-29101,-22272, -6873,  1558, 11470, 19987,   7254,  8323,-31114, 12186, 10897,  1182,  7716,-28273, 20438,-28942,  15963,-18953, 23654,  9608, -3523,  4296,-20110, 18671,-14951,  3861, -14337,-31545,  8886, 25305, -6269,-22501, 27149,  1663, 30137,  1693,  -6789, 24879, -8842,-15660, 14241, -9851, 10548,-21767,-10449,-16606,  25394, 31231,   757, -7978,  7403,  5096, 19672, 27543, 30419, 31329, -21328,  8577, 17976, 20983, -6063, -4971, 15700, 24895, 26274, -7019,  20442,  1917,-23257, 26473,  2266, 18252,-26312, -4071, -2261,-16623, -29998, 29649 }; 
L2_DATA data_t m_lstm_c[162] = {  6645,  4582,-13244,-10837, 30784, 12330, 24429, 25509,-10871,-13125,  11311, 25117,-20558, 21017,-14961, -2181, 27194, 25042,-13078,-30546,  -3389,  1201,  5615, 21293, 28668, 13571, 32674,  2733, 30186, -7353, -14926, 30041,  8554, -6954,-15761, 31326,  1166,  8941, 17889, -3613,  10135, -4391,-26235, 16096,  2494, 19709,-31055,-32002,  3401, -7835,  10353, -9265, 15543,-11509, 27816, 26528,  1256, -8134,-31837,  3599,   7514,  8290,-14797,-12384,  6740,-31252, 12813, 19871,-30086,  2734, -18822,  6165,-27353,  1331,  8093,-29848,-28240, 18216,-18808, 10966,  31316,-11508,-16508, 13938, -9110,-12696,  4171,-28180, 28656,-11083,   5250,  4521, 18980, 10801, 23573,-31091, 21426,-16373,-13920, 23003,  -9790,-10824, 21678, 14485, 20034, 16590, 10973,  2947,-28188, -2171, -31509,-15919, 23454,  7365, 25914,-11327, 17777, 21463,-15289,-25950, -19467, 11174,-19697, 29684,  1676, 12440,-17616,-13728, 14281, -3833,  21717, -7920, -2105,-21500,  7562,-21163,  1556, -5746,-17974, 30973, -19749,-10280, 15542,-32663, 22525,  1377,-30715,-29659, -5582, 22256, -11912,-25994, 29623,-21036,-30328, 11907, 28490,-10975,-27809, 30035,  27585, -2132 }; 

L2_DATA data_t m_lstm_weight_ih[648][162] = {{-18882,  -671, 21697, 24828,  -594,-27909,-11849, 21806, -8602, -2302,    8580,-30524, 20160, 17654,-15181,-14596, 10883, 21637,  2869,-17931,  -20635,-32752, 24783, 27717, 22845, 22418,  9828, 20312,-31398, -2118,  -17779, 17996, 10639,-32549, 20840,  1175,-10102,-32352,-29374,-12769,  -26897,-22526,-30631, -5538, 20858, -2027, -9095,-25967,  5808, 20700,    7727,  7953,-10011, 25141,-10401, -7033,  7065,  8058, 24309,-11005,  -31500,  9042, -5243,  1309,-26793,-10432, -9687,  5485, -6076, -6139,   13281, 12607, -9820, 24185, -8154,-27581, 18924,-10197, -2606,-14554,   -3033, 25563,  5739, 12371,  6793, 20298,-21832,-22742,-24316, 24622,   11128,-25216,-22084, -2984,  2304,  -970, 14281,-24715,-23150,-12669,   11916,   271,-25287,-27352, -2809, 16199,   282, 30067, 12629,  4264,    1685, 16553,-19980, 30977,-19457, 16807, 27587,  5380,-29925,-15093,  -10894, 22173,  3294, -6001,-29042, -1958,-11832, 15952,  2593, 17146,    -365, 20066,-20082,  8024, -3903, -8939, -3999,  8072,-21607, 24063,   20509,  2891, 21211,-25954, 19538, 13379,-13679, 20030,-18829,  4792,   28760, 20478, 31399,   582, 25719, 24914,-25417,-24047,  2238, 15768,   10231,-31883}, {-27392,-20335, 23806,-13105, -4893, 11088,-24688, 12681,  8788,  6035,  -22512, 10760, 28340, 21336, 28469,-28821,-18599, -2735,-20184, -4356,   18821, 24629, 30202,  -712,  9421,-26083, 27123, 18554,-24272, 10456,   -2123, 29721,-18931,-25627, 29888, -4318, 29082, 23548, 23879,-22706,  -25521,-26072,-22763,  2888,-21799, 11062, -8363,-27533,  6689,-24205,   15392, 13755,-13051,-17642,-21854, -4775,  1483, 11946, 22356, 24934,  -14023, -3471, 26912,-22517,  7752, 26010,-11021, 25356,  8935, 30178,   23808, 16792,-19633, 23061,-12175, 24222,  9312,  3353,-29686,-15208,   15509, -1897, -4629, 14626,-14170,-17221,  3231, 21503, 25574, 23268,   20362, 24297, -1646, 11396,  6147, 31870,-17595,  6309,-25360,   765,   26424,-13731,   519,    37,-27180,  4725, 16305, 10748, 27859, -4633,   22558,-25013,-23576,  4538,   796,  4272,  9217, 11544,-30599, 12772,  -13356, -5062, 24631,-17943,-18876, 15490,  3730, 15745,  4215,-31925,     852,-18903,-23100, 29573, 29311, 13872,   337,-24547, 21401,-22345,  -27255, 28220,  5679,  9912, -5871, 21970, 25363, 19798,  9011,-26604,   -7679,-12252, -6211,-13979, -7493, 11408, -8275,  3482, -3204, 32286,  -10954,-27882}, {-18995, 19666, 30686, 28775,-25852, 22823,-13059,  2917,   985, -3812,  -31705,-29445,-11366,-17041, -4900,-21031, 14347, 11361,-31458,-16932,    8776, 28644,  -965, 28104, 19864,-13281,  8315,-24223,   734,-23105,   31462,  5209,  8264,-12506, 10568,-19173,-15127,  8634,  -658, 14131,  -18890,-18688, 30243,-17631,-26717,-18897,  6041,-10849, -8175,-18568,  -20339, 11959, 32734, 20418, 22929,  5846,-23915,-22192,  5310,-26815,   13652,-27779,-19423,-12317,   817,-13818,-25594,-13782, 26053,-24506,   18295, -5852,-15199, -1493,-10887, 30384,-25578, -3074,-17661, -1659,  -26160,-27240, -4881, 15314,-30229, -6469,  1549,  2789,-13937, 10201,   -5940, -6354,  5540,-23340, 17601, 16748, 26901,  4384, -1033,  8872,   28031, -5492,-27867, -4532, 25290, 28609, 10247, 22613,-10335,  -403,  -29558, 24754,-29494,-12994, 13997,-28877, 10477, 22038,-10712, -9939,   21547, -1884, 12527, -5090, -2257, 11142,-14430, -3737, 31838, -4250,   28013, 24213,   187,  -514, 11316,  6882, -3907,  5240, -1399, 24498,  -16215, 14793,  8420, 27352,-23502,-22310, 24153, -6095,-17428, -9158,     373,-15903,  1075,-29897, -4734,-17019,-22277,-32242,-26825,-27730,   20386, 22153}, {-11922, 18032, 16544,  -915,  7830,  8770,-18126, 32528, -6768,  6680,   22718,  2874,  1224, 29059,-24286,-20261,-29873, 29256,-12486, 30952,    8690, -1997, 11848,-30050, 29668,-29411, 21481, 10751, -7437,  7436,   31700,  -405,-16016,-17508,-14111, -9231, 19938,-14057, -5762, -7556,   31647,-18375, 16193,  1671, 32107, 16363,-30808, -2930,-28745, 20420,   -4619,-30292, -7322, 12691, 29722,-13762, 27139, 30182,  5235, 24998,  -11995, 17373,   411,-12348, 10883,-20897, 24317, 20163, 23308, 19718,  -32073, 13610, -8489, 18813, 24508, 17207,  4556, 14079,-28534, 15177,    9344,-16241,-25425, -1383,-27880,-17329,-14961, -5563,-23055, 20105,    3813,   813, -3553, 23779,-17389,  1466,-24433, 20939, 17237, 14429,   29017, 11184, 32351,  1211, 12090,-25091,-22416, 12798,-20604, 28561,    5705,-32297, 19347,-13852,-16834,-31549, -4978,  6859, -6554, -7341,    3444, 26911, -5261, 20522,  7397,  3560,-15578, 27140,-24634,-17099,   11645,  7941, -1850, -2671, 30933,   972,-20798,-15855, 14116,-18033,    -193,-29046, 24351,-12441, -7206, -4101,-28323,-21234,  5202, -5932,   10091,  5853,-13043,-17035, 13614,-20611, 22329,  9303,-19909,  8097,     533, -2680}, { -5979,-10077, -4817,-27787, 22157, 30390,   655,-15452,-16713,-24370,   27390,  3614, 29299, 15788,  1143,-11412, -4721,-11005,-26940,-21774,   15727,-24953, 29386,  -409,-10112,-13070,-10427, 32368, -4315,  7010,  -26295, -9934, 10990, -1113,-12197,  6948, 32049,-25472, 19714, 22241,  -10547, -3098, 17438,-14903, 15425, -2667, -6514, -4581, 23914,-18826,   17643,-28178, 16347,-32215,-19017,-27277, 18261,-12422, 16520, 11163,   18713, -6823,-25757, 14668, 23817, 15126, 12680, -7775, -5022,-25331,  -14590,-10526, 31701,  6985,  3600,-18171, 29227, 25762, 21433,-29676,   12316,-21091,-24126,-18635, 31296, 25979, 31133,-25904, 27541,-15850,  -15419,-19284, 22792, 23492,-17738,-20310, -1925, 11140, 27846, -3428,   23846,-15976, -4274,-30513, 17829, -4679, 26750, 21499,  6398, 18434,   19018,-26403,-12156, -4174, 18099,-19713, -3804, 13015,-22609,-17609,   -8112, 23110, 15622,-28122, 15911, -2526, -1361,  3681,-12937,  2828,  -31742, -8951, -3392, 26188,-31193,-28078, 15514, -1953, -7433, 28034,   10447, 23184,  1419, 14595, 27006, 10544, 24781, 25622, -4732, 25499,   21786,-21366, 23527,-29309, -6126, -5094, 25502,-14506,-19710,-17752,   -2241,-18469}, {-27213, 12028,-26441,-31919,-29691, -8055,-23381,-20133,-15297, 12510,   25736,-22084, 24056, 19358,-31834, -2375,-32384, -2743, -5162,-12902,   25269,   734,-15146,-25265,-25465, 27342,-21439,-19356,-26866, 30013,  -24866,-15817,-20981, 29821,  1689, 16379,-30394, 17826,-17859, -7368,   -7783,-21898,  8038, 29736,-14874, 24938,-21042, 23985,-20928,-11869,  -16508,  2825,-18491, -3457,  4643, -2458, 14698, -8683,-28843,-30802,   29091,-28179, -9954,-30357, 17850, 28600,-11600, 16689,   417,-23669,   12047, -9903,-25903, -5609, 21771,-13338, 12905, 13716,  5409,  2134,     768,  -867,-18672,  8380,   507, 12491, -6691, -8145,-30077, -5856,   13146,-15675,  8387,-31844,-26968, -1050, 27613, 29429, 18621, 29378,  -11169, -6362,-13501,-20133, 31763, 26916,-19582,-21698,-17244,  9114,  -21310,-26960,  2166, -1785, 19966,-23299, 12392,-23921, 17921, 19892,   13177,-18711,-12018,-23869,  4441,-28274, 27273, 16298, 25827,-24202,  -12137,  9220,-22753,  3822, 24253, -6470,-22103, 25912,  3841,-13775,  -31006,-15813, -1523, 30251, 17330, -6874, 21674,-29213,-14591,  3336,  -32697,  1692, 19160,-18329, 13538, 28054,-13829, 32623, 10157, -8079,    5172, 28003}, {  5298,-20687,  1098, 18183,  9216,-11842, -7330, 12233, 29054, 16520,   -6593,-18010,-13391,-28557, 22099,-15162, -8284,  4365,  7902, -6077,   -3622,-26977,   463,-21968, 15061,-21867,-31342, -8577, 21752, 26699,   27821, 23365, 26122, 24487, 29863, 32201,-11128,-15084,-29976, 20027,  -22188,  6770,-23512,-28718, 23811, 17627, -4721,-26371, 30456,  -241,   12393,-24877, 15108, -7097, 23488, -7958,-12278, 10790, -5733, -5584,  -23165, 29792, -6733,-31106,  7753,-12294,  3809,-30563, 18197,-10295,  -22545,-20053,   435, -3891, 20351,-14539,-24553,-27041, 31347,-25341,  -14986, 10481,-23817,-22785, 28875,  -681,  3583,-23609, 17200, 28334,   11092, -5719,-14138,-15903, 19870,-10850,-10913,-24709, 21790,-20237,  -16609, 20119, 17001,-17182, 20479, 10944, 24687,-16494, 14794,-12824,  -20951, 13119, 21539,  9809,-25683, 26115, 16639,-24355,  9887,  8672,   25145, 15068,-22692,-22825, -4465, 22187, 18436,-17011, -1836,  8070,   10529, 28071, -9646,-11444, 22536,-11856, 12502,-32621, 29815,  9442,   32607,  2370,-22435, -8716, 16232, -9249,-17083, 13775, -7120, 20018,   -4665, 25533,-14020, 10510,-12320, 12557, -4050,  3895, 28615, 16703,  -31950, -8816}, { 20384,-10424, 32159,  5403,-16733,-25980, -4137,-32555, 14448,-30585,  -24496,-19490,-21272,-12968,-20701,  5294,-19492, 29086,   188,-18200,    9725,-29011, 28394,  5806,-30435,-31389,  5211, 13995, 13030,-26539,  -15681,  -286, 27634,-25660,-27695,-10114,-16420,-28268, -4863, 23064,    1615,-22236,-17764,  2080,  3545,-31892, 28028,-17194,-14288,  3386,    5706, -6680,  9875,  6880,-10673, 12250,-21864,  7154,  5839, 16510,  -22786,  4006,-28523, 32052, 31218,-24351, -6238,-17660, 26128, 29242,   -6725,  3291, 23756, 22205,-22153, -4581,-19349,-30744, 32642, 28555,  -31192, -9939,-26505,-32611, -1621, 17574,-19367,-18502,-32266,-24522,   29742,  6176, 18978, 16259,-29615, 30108,  8544, 23012, -4811,-22070,     594, -6091,-18889, 30637,-28093, 10182,  8645, 22545,-30056, 16461,   32206, 26270,-13907, 16782,-13124, 21703,-20771,  7391,-16216, 21584,   -6592,  3314,  2574, 27545,-13057,-19422, -5954, 12685,-30372,  6150,   19291,-22614, 12488, 10534, 13630, 20201, 11620,-32567, 19090,-30382,   10783, 26862,-31189, 19656,-30674,-25419, -5965, 14835,-15656, -4736,  -23116,-10605,-32466,  1013,-24593, 23804, 19422,-10497, 26686,  -750,   15333,-20491}, {  6585,-19475,-28534,-29864, 15463,   435, -2689, 25575,-10796, 13117,    2796,-13642,-14990, 26380,-17361, 14761,-27995,  5314, -7200, 12787,   -2992, 27745,-17054, -4977,  2631,-10040,  1126,-17574,-15886,  7549,  -26537, -7133, 26422,  7080, 19576,  7835, 13733,-14448,-23087, -6505,    6426,  1437, -2577, -7886,-31987,-26778, -6983, 28399,-22616, 13801,  -23213,-21187,  7454,-25827,  6222,  5450,  9793,-15080,-25895, 13015,   25431,  -356, 12623, -2414,  3823, 10076,-12975, 18766,-31517, -9949,   14573, 14353,  6034, -3314,  7401,-18608,-25555,-27092,-16686,  1383,   28310, 13608, 16526, 17802, 26089, 24257, 28539, 10879, 24358,  7973,   -1617,-17032, 16068,-24939, 26438, 18384, 19839,-17587,-20436,-30120,   11908, 30587,-30949,-29652,-29105, 17174, 25802,-18129, 22078, 25383,  -31536,-26944, 15019,-26749,-20533, 21509, 30867, -7865,  1575,-18562,  -25846,-18378,-20044,  2941, -8342, 17967,-10312, 18852,-28299,-27673,    7863, 27309, 31799,-21128,-14403, 32260,-25059,  2235, 20689,  6572,   -8710, -1957, -9842,-30859,-18815, 16720,-31970, 28891,-18022,-22227,  -30545, 13569,-11404,-18491, 20094,-23210,-31990,-10915,-13250, -7734,    9038, 24454}, { 11062,  -734, 21292,-31740, -4357,-26980,-19741, -6047, 16718,  2198,    2665,-15138,-11978,-10988, 26542, -7678, 19575,-12048,-17716,-14495,   -1721,  7389,  1213,-25046,-17085, -4899,-12062, 27985, 21518, 26931,   15329,-11124,-12206,-25972, 21015, 11411, 25563,  3415, -6306, 20176,    7130, 19197,-17440, 12832,-20013, 31531, -2709, 18655,-15770,-19785,    1144,-19161, 26476,-13589, 18075, 14648, 29065,-23203, 16525,-27306,    8807, 26451, 14960, 13789,  9716,  1729, 31085, 13645, -8001, 13369,  -12721,  1571, -4499,  3432,  9318, 13737,-17533,-12488,  1407, 20367,   -5257, -3907,-20055,-18203,-20861,-22300, -7556, 31195,-27401,  4656,   11731,-13487, 21294,-13843,  5499,-32708,-28300,  1092,-28304, 16046,   -9915,   894, 15270,-26361, -6463,-23904, 23364,  6461, 23517, 18469,  -22702, -3400, 19074, 29250,-14448,-29379,  4675,  5616,-15318, -1069,   19073, 29062,-28385,-21916, 19654,  1571,-24837, -9466,  3344, -1168,  -21492, 27324, 16669,-28870,  -861, 26734,  5842,  6353, 14317, 14693,   -9032, 18335, -1635,   662,-12946,  2074, 31505,  -883,-31260,-16942,   28840,  3434, 26120,  5392, 15289, 14067, 32018, 14193,-30318, 21941,   21263, 18495}, {  -900,-14857, 14244, -1006,-18544,-13241, 10384, 11459,-26835,-28625,  -13189,-27107,-13324, 19604,-19606, 29120,-18073, 27555, 26661,-18351,   17677,  3597, -6957, 30051,-27829,-16298, -1698,  2954,-29165,-12333,   19865,  2375,-29499, 31449,-12822, 11199,  6333,  1694, 20192, 24920,   -6156,-27843, 14758, -7938,-28116, 18701, 24881,-21105,-10556,-25572,   12828,-22029,  9165,-15724,-31923, 31340,-11346, 23230,-16051,-15212,   31978,  9971, 11864,-25277, 18595,-10324,-17197, 22327, 14751, 18640,   12521,-30644,-24767, 13979,-24313,-27610, 20193,-24203, 29987, -3288,   24332,-21930, 12343,-30445,  5222, 13408,-25676, 13618,-22136, 18727,   20461,-12032, 27094, 15186,-29289,  5830,  8697,-23036,-31034,-25001,   19729,  8760,  -545, 25389,  9280, 15455, 19294, 15464, 27175, -9654,   31827,  3877, 23821,-20605, 13885,-21354,  9576, -5862, -2037, 13792,   -2699,-30354,  9686, 32606,-14539, -7031,-22138,-22109,-12073,  -449,   19756, -9534,  3886, -1164,  9616, -3389,-22631, -2860, -6753, 28013,   12609,  4574,  3714,-14955,  3642, -2053,-26242,-32505, 10699,-17695,  -14868,-19747,-23581,  7719, 24082, 17411,  5901,  4095, -4298,-31223,  -18914,  1519}, { 21411,  9190, 31519, 21307, -6698,  8608,-23677,-32639,  4211, 27014,   19804,  3828,  3806,-31016, 29275, -1359,-14636,-27959,  3461,-12435,  -29682, 20579,  6633, -9229,-16873, -4314, 14289, 17433, 28380, 12398,    8042,-16695, 24153,-23337, 21013,-21947, -4005, 18646,-30323, 24450,  -30710,  2330,-21024,-21649, 21126, 31961,  7752,-16290, 19618, 14969,    6319, -9318, -5825,  8292,-24643, 19958, 23598,-26067, 23883,  4769,  -29678, 14134, 18783, -2492,-26472,  7626,-11282, 22180,  9965, -3573,   10781,-15933, 25917,-17483, 20806,-21271,  6523, 29256,-19933, 16617,   16418, 32701, -3202,-10203,  5213, -1009,  1172, 23501, 25121,-28676,  -31123, -9430,  9497, 30764, 29467,-14965, 23918,-13923,  -678, 27354,   19272,-11716, 30313, 10113,-13482,  9687,-19905, -4190,-29938,-19935,    6074,-10768,-12786,-26829, -4525, -3733,-25384,-13621, -3667,-23093,   22322,-29035,-16744, 15563, 11772, -7666,-27981,-16651,  1017,-13570,   -5992,  3287,-22735,   965,-27299,  9778, 25463, 11146, 13057,-26454,   31636,  1265,  8281,  4917,-15922,  3663, -9270,-11929,   993,  5076,  -19454, 18026,-14823, 25257, 21744,-20838, 31339,-28229, 27039, -7747,  -27375, 25716}, {-13817,  -991,-25768, -7481, -3025, 27339, 31099, -8976,  8293,-21903,  -16032,  -755,  9693, 23094,-21990, 30262, 13418, -4710, 30061, -3672,   22236, 11033,-21141, 29701,-19249, 17666,-12257,-11416,-19649, 20430,   21249,-27293, 31767, 11519, -2268,-25578,-12514, 22613,  4633,-31433,   -1775, -1566, 23094,-19895,  9331,-22933,-16958, 23933, 31037,-24933,   26815,-24805,  4860, 19318,-17008, 21941,-19190, -5142,-19639,-13442,     221, 26566,-13311, 15744, 21459, 31983,-14459,-15272,  9923,  2664,   -4893,  3845,-10975,-23322,  8883, -9366,-30235,-27675,  -685,-17603,  -32739, 11940,-28492,-14931, 25338, -8759, 12676, -7918, -7392, -3577,  -17498, -4110, 24758, 31463,  6719, 12145,  7424,-13333, 25864,-15328,  -31556,  4845,-27297,  -576, -5314, -1825, -2752,-29735,-20683, 19203,   31690,  6608,-30853, 12843, -4315,-14527,-29748, 25525, 12323,  5748,    7661,-18207, 30180, -8093,-11818, 24720,   496,-21164,  5892,-21774,  -19809, 14143, 16691, 23524, 32489,  3822,  7556,-12688,-13782, 11129,   16713,-14944, 16686, 32012,   283,-16023,-23040,  1202, -6482, 27777,   15656,-21245,-32137, 15274, 28212, 16345, 13146, -1836, 22897,  -646,   21112,  2062}, {-12870,-30786, -5604, 16319, 25449, 32226,-28826, 15399,  6656,-12848,   22170, -4931, -3652,-18875,-16047,  3908,    58,-16988, 22173,  6641,  -12892,  3939,  7929,-13533, 31334, -9262,  6131, 27751,  -517,-12348,   26903,-27973,  -500,-15434, 32120,  5958,  2978, 26040, -7224,-12013,  -20466, 30205, 10017, 16445, 12486, 27558,-17559, -2836,-15677, 15747,   30553, 12778, 30628,-10839,  6173,-17091, 26172, 23094, 24742, 24776,    7378, -6138, 26091, 27935,  9208,-28552,-32367,-11339, -3872, -1637,   29183,  5110,-30351,-31176,-13330, -2467,-17931,-13925,  -324, 13118,    2656,  6406, 17608,-20985, 17096,-30248, 16019, 11363,  2988,-25609,   25472,  4814, 12200,  7616, -6512, -6992, 22243,-30515,-20584,  3457,  -19475, 25001,  4041,  7587,-17953,-22310, 27143, 25651,-20595,-22902,  -14218,  4594, -5166,  6719, -5843,  -756, 28365,-27744,  8423, -4754,    8246,-31704, 12080, 24878, 16884, 18109, 29391, -5940, 31822, 12241,   29191, -4874, -5877,-27553, 25710, 18919,-29803, 25562,-32081,-16064,   28054,-24449,-22075, -2180, 17170, -8569,  2251,-13248, 29362,  -177,  -15714,  1931, 24362, 21310, -8038,-13929, -4379,-11911, 21550,-22666,   -7852, -8313}, {   945,-28240,-15646,  7203, 12883,-22100, 24924,-29059, 27242, -9245,  -18737, 13483, 20664, 15101, 25278,-11393,-21750, 11260,-25177, 21274,  -22606,-11510,-29762, 20401, 18841, 17205,-29867, 31909, -1109, 20975,   20788,-14527,-32312, -1074,  9680, 18525, 28266, 20700, 32203,-32232,  -24971, 15750, -3613,-13323,-16257, 21281, 17944, 20347,  8781, 23667,    2389, 14698, 30078,-14665, 19496, 17056,  3359, -3125,-31428, 25858,   -2110,-19234, 28560, 12793,-13772,-23420, 27744, 17757,-21139, 28890,    3802, 18260, 17898, 26749,-12043,-29618, -3905,     9, 14538, 18202,  -19837,-15651, 30620, -7675,-13116, 12606,  4454,-30082,-14392,-21817,   -2648, -7041, 12900,-29045,-16643, 25488, 28897,-24945, -1840,   114,  -31065, -3846,  2892,-23691,-13042,  8662, -6197, 24227,-12067,-26454,   27050,-17251, -2672, 13577,  2235,  6389,-21545,-28259, 14930, 11469,   -3084, 14728,-15617, -9390, -8766, 23765,-30010,-12383, 29191, -9653,   -5854,-18412, 20137, 27568,-32645, 27250, 32512,  1178, 16952, 24812,   26580,  9181,-24147,-25952, 12746,  8454, -4140,  -772,-14263, -9989,   26957,  5076, -8789, 12730,-30455,-30259, 23543,  3706,  3682,-12407,    7900, -4692}, {   595,-12510,   -83,-30873,-17958,-25565,-26341, 25859,-29961, -3880,   12062, 19390, 18864,-22119,  1592, 22274,-17477, 11298, 17138,-21273,   23970,-23711, 11971,-30734, 21107, 12012, 25329, 10021,  -848, -7068,  -23643,-15744,-24392,  8011, 21281,-29865,  7761,-22059, 31270, 11021,  -11237,  1386, -6853,-14603,  5155, -7055, 27811, 24362, 18752,-16797,   26789,-11513,-14504,  -584,-29861,-14086, 23107,-21736, 11880, -8770,   27912,-21077, 10631, 19831, -6100, -9179,-15838,  6148,  7220,  8226,  -12397,  9526, 12176, 28309, 20138,  -134,-28733,-16067,-24470,  9702,   15842,-31634, 25206, 21244,  2274, 30539, 26038, 28333,-15152,-14017,   31051, 32713,-17565, 32747, -6921,  2241,-27281, 21634,  3870,-25409,  -27544, 26739, 17703, 15681, -3615, -8005,-29931,-13672,-18920,-30023,   22755,-12895,  2608, 32551,-20622, 14947,  2366,-12572, 14919,-10473,   13910,-17581,-29362, 30309, 15391,  3582, -4357,-27822,-32417,-16258,   -4726,  8820,-20971,-18985,-12475, -9081,  4166, -4123, 30774,-24308,  -22888,-13729, 21367, -7943, 30534, 26886,-20315, 26366,-24400,   -66,   15312,-11608, 14489,-17917, 30516, 15089,-14092, 14880, 30187,-28159,  -18971, -6416}, { 21593, -1175, 15250,-23235,-22763,  8563,  -674, 16401,  -863,-12977,  -23436,-32171,  2252,  2623,  7427,-12464, 26438, 15953, -2069,-29259,   24203,-15122,  2673, 10660,-32174,-30471,  1115,-18998, 11865, -5636,  -23960, 18612, -6357,  1695,  8643,   955, 15162, 10874, 27817, 19299,   31251,  2767,-16462,-19621,-26161,-30961, 14701, 17208,-10041,-32058,   11462, -7281,  7300, 25587,  9544,-22024,  8657, 20232, 22966,-12103,   15986, 28261, -3013, -3725,  2693,-26212,  2607,  4862,-14949, 10797,  -26945, -1334,  3035, 27951,-11630, -4061,-17390,-28675, 15500, 30407,  -29953,-28039,-16473,  6037, 26896, 13571, 21832, 29146,-10124, 17703,  -20578,  4821,-13761,  6918, 21463, 10311,  5238, 16203, 27425, -4490,  -17726, 23006, -8245, 12341,-28217,   375,  9226, 10940, 23856, 30601,   32267,-20687, 20690, 32472, 12490, -2154,  7055,-13167, -1410, -6133,  -25572,-18831,-32266,-23799,  3758,  -528,-26449,-15793, 13440, 22667,   -9489,  7506, 11641,  9969, 25631, -4210, 27236, 30870,-14591,    81,   26511,-20228, -7278,-22288,-22176, 30416, -9333,-10376,-25434,-26068,   -4881, 14151,  4832,-32432,   674,-25898,  8932, 12878,-16669,-31138,    8923, -6884}, {-26715, -6604,-11731,  3088,-30602, 15792,-30146, 10227, 12900, 26797,  -15095, 25318,  2662,-14145,-12033,-13783,-18480,-22437, 12324,  8433,    -507, 10957,-15017,  1805,-24297,-10614,-22906, 21941,  -953,-13256,   15744,  9266,-23381,-30285,-16774, -5138,-11835,  7985, -3102,  6411,   30828, 24659,-30283, 23111,-29196, 18690, -2329, 12620, 11686,  5779,   32555, -8265, 31963, -4696,-20251,  3481, -2021,  -213, 27935, 10774,   -1774, -4109,-26338, 14848,  4908,-30362,  8361,-28876, 17253,-28111,   30039, 22292, -4471, 29487, 10828,-16924, 27008,-14170, -1037,-21439,    9454,  9010, 30655,-14192,  2358, 12988, 13049, 23008, 20078, 26242,   -5173, 16307,-12155,-10058,-11302,-11184,-22260, 12546, -6726,  3353,  -18402, 20833,-11088,-23042,  9831,  3265, 13918,-10986, 21668, -1752,   14797,-28083,-27220,-30658, 20554,-14737,-25852,-23468, 11632, 26170,   17667,-31228,-22829, -7971, 21870, -6791,-21776,-26920,-26364,  -179,   13803, -7848, 16181, 14307,-22349, -8799,  6650, 29302, 17137,   562,    7056, 20387,  6977, -7543, 22332,  -848, 28583, 11439,-21730,  1534,     939,  5461, 31084,-22672, -1410,-24453,-31927,-23782,-32028,-21440,  -14277, 23062}, { -4394,-28574,   308,  6007,  8263, 13393, 15076, 30353,-12555,-24675,     761, -3571, 22615, 21299, 15937,-18894, 16354, 14168,  1804, 20709,   19993,  -641, -4356,-19907, -2160, -4891, -1329, 29210,-24785, 26954,   18433, 25881,-20340, 31914,-16979,-15010, -1920,-19643, 24704, 17973,  -11770, -3523, 19586,-19633, 21222, 25822,-27756, -2128, 10537, 28848,   -7073, 15909,-19972,  9024, 23758,-22051,-25563, 29207, -4796, -1695,  -18580,-20747, -5806, 27249, -9694,-18528, 30670,-16548,  -384,  8522,  -28666,-28435, 15276,  -977,-14714,  5428,-20030,-16359, 10879,-19025,   -3273, -2737,-26624, -4354,   478, 13949, 26541,  1040,-17516, -8330,   -3096, 21704,  4631, -8509, 24922, 21535, 28930, 22999,-27234, -2779,   29793, 15839, 29205, -1608,  5315, 31171, 30643, 15736,-20763,-20651,  -23787,  1781,-30494, 20974,  3259,-28590, 16319,-12806,-19985,   696,  -24183,  5440, -7174, 10314, -9537,  2095, 15229, -1925, 18227,  4476,  -23606, 17689,-18921,  7898, -8914,-29228,-26099,-20655, 14787,-10703,   12244, 17028, 26621,-24678, 12751,  6398, 21388, 11055,-27228, 18441,  -29589, 30303,-26668,-17357, 14730,  1705, 23577,  1479,  9070,   987,   14569,-22230}, {-28575,-21661, 10710, 16065,  4168,-30867,-10405, 12047, 27915,-18707,    5427, 30111,-16739,-25996,-15700,-20310, 19622, 14827, 19533, 32518,  -14279, -4127, -9530, 32584, 26397,-11798, 11156,-32025, -6017,-23071,   10512,  7230, 23779, 19523,-23368, 25376,  6764,-11352, 16278, 10991,  -24997, 10894,-15148,-31666,-11650,  4107, 14784, 27491,  8519,-12062,  -21862, -4735,-20350, 11022, 22007, 27659,-20664, -7784,  1439, 28454,   12722,   935,-20589, 28677,  7635,-16956,  7743, 24894,  3987, -5136,  -30329,-30423,-15128, 18690, 17979,  7232, 27073, 23553, 26226,  7710,   31967,-18700,-25472, 20705, 11991, 31792,-32084, 20090, 22629, 16189,   24865,  5254, 27747,-32664, 16321, 20572, 23741,  4998,-30557, -8434,  -14716,  2380,  4252,-28676, 28672, -4425,-22269,-22938,-27626,  3938,  -10688, 28407, 12842, -4646,  2267,  3760,-22426, 14129, -5104, 31756,    4415,-14693, 19315,  6962, 17982, -4510,-13191, 32575,  2228, -8619,  -22295, 30979, 24864,  9343,  5677, 11863,  5695, -9139,  2147, 32643,   -2575, 28735, -4268,-17431,-14965,  6821,-28338, -7343, 32765,-24450,   22180, -1710,-15851,-18464, 30096,   882,-12846,-15446, 17512,-30692,   30384,-14225}, {-21011, -1118,-31774,-26538, -7596, 20965, 11953, -9004,-18615,-26291,    6963, 18466,-29761, 13687, 19746, 20896,-31435, 16082, -2988, 15130,  -28998, 16307, -3086, 20447,  3943, -2276, -1155, 29961, -9841,-10902,   24498,-13062, 16402, -3050,-28214, 12453,-20261,-20409, 20876,-23594,  -23118,-18494, 10592, 21875, 18735, 20882, -2904,-27561,-27800,  7487,   12173, -6537,  2366,  1745,-16263, 28457, -6693,  8498, 17913, 19422,  -25125, -2831,-12148, -7997,-18032,  7949, -5301,-21609,-24442,-13396,   -1714,-26213,  5903, -2861, 10585,  8375, 18613, -6270, 22114,-21701,   13446,  7676, 12504, 12264,    44, 23883,-30450, 25819,  6349,-30306,   19360,-20017,-10296,  8792,-15838,-11640, 10817, 15134, 17736, -7684,  -27751, 24221, 32043, 12668,-27022, 16211, 18511, 24763,-29891,-28089,  -14837,  3369, -3036, -4719, 21064, 26944,  -115, -4289, 18999, 27921,   31543, -8260, 13683,-17964, 24163, 26062, -3063,-31569, 24729, 23451,  -11191, -4232,-19447,-16291,-18522,  2135,-26686,-26962,  2184,-10083,    7227, -3906,-12885,  5739,-11514,-26500,-17375,  7589,-20767,  3643,  -10795, -6738,  4448, -9048, -4027,  5040,-11529,-30745,-12017, 16601,  -27994, 14184}, { -5382,-16200,-10574, 26654, 16291,-31750, -9561, 24376, 23454, 10306,   -3550,-19185,-30622,-27044, 21610,-24037,  7924,   540, 23195, -4488,  -17033,-30775, 30128,-32396, -8768,-11297, 20422, -5461, 31602, 11634,   24099,  8570,-14725, 11094,  9007, 25162,-17941, 27473,-13698,-13401,  -15850, 21225,-20162, 30899, 22610, 27656, -7869, 11402, 19427, -4428,    8724, 13077, 29613,-16026, 23361,  2873,-25556,-21430,-32584, 10901,  -19268, 15525,-23661,-12315,  6753, 24802, 16148, -7684,-21580,  7783,  -25019,-22079,  1761,  2981,-11438,-16006,  2098,-29888,-27426, 20598,  -19956, 32033, 30799, 10869,  1056, 23307,-17966, 30732,  6676, 16055,  -26445, 32757, 31392,-13453,  9560,-26717,-22596,-32049,-28088,-21767,   18594, -7804,-13388,  2549, 11346, 30559, 24772,-12282, 18497, 16571,   -5266,-10394, 15558,-20385,-15795, -2748, 11645, 10693, -9506, 14462,  -20153, 32449,-18611,-13115, 17100, -2459,  5296, -6150, -8239,-22864,   14533,-26603,-17544, -8818,  4221, 26045, 22060,  4571,  -128,  2778,    8581, 16179, 32358, 13183, -2680, 24670,   665,-30989,  5757, -6482,   -2826,  7205, 19790, -8880, 27271,-26210,-15443, 22327, 17290,  5509,  -25602,-24261}, { -9583,-22162,-12658, 32378, 19550, 14907,  -206, 18507, -7153,-18136,   30530,  -469, 25297,-32565, -8269, -3068,-18834, -6306,  9555, -2129,   -6445, 14674,  1436,  -586, -4929,-18781, 32151, 10658,-11717,-23264,   -2487,  -104,  4392,  7548,  6963,  8753, -8002, 22044, 27798, 21273,    3321,  9943, 26951, -5945,   681,-20192,-31928, 13805,-25659,-17351,  -31269,  8497, -5493,  8427, 18275, 27709,-17493,-14768, 22979,  8234,   -3828, -6557, 23400,-18663,-24748,  5785,-23735,-23859, 17226, -4669,  -29798,-26701,  5256,-31935,  6375,  4720, 13957,  2772, 23314, 12511,    4719,  -263, 13540, -2489, 15564, 30637,-25258,  9453, 24296, 24113,  -27656,  9652,-25940, 20302, 14363, 18119,-21359, 26935, -4924,  2231,    5316, 23823,-17919,-21932, -5575,  2932,-14130, 29492, 27385,-17152,   14107,  5111, 20843,-20551, 14895, -6591,  1511, 20253, 29664, -5587,   14684, -2397, 23107,  7299,-23545, -2052, -6741, 17748,-19508, 11498,  -14415, -2776,-19514,-16898,-21194, 10341,  1592, 15942, 29600, -6715,  -28987, 17803,-15762, 29640,   519, 31544, 27894, -5145,-26841, -1775,  -17102,-26407,-10036, 23237,-12093, 13078,  9207,-26343,-13023,-12597,   18005,-19814}, { -7138,   993, 28389, -2092,-29014,  6176, 16777, 25131, 32109,  5370,   18533, 15337, 23577,-27267, 27344, 18134,  2945, -4489, 14375,-12917,   17260,-26146,-21776,-22923,  8389, 20533,  6771, -1282, 10030, -1608,   -9101, 11610,  9847, -9385,-17031,  4925,-23992,-12734,  1760, 16992,   26387,-31926, 23918, 31476,-24758,-15715, 11971,-26063, -8442,-15732,  -16280, 22800,-21268, 21885, -4208,-27495,  8973,-17989,-19680,-17684,    5480, -3007, 20576,-31320,  8893, -1157,-26299, -5379, 24093,-29802,    9360,-24408,  3203, 10114,-31067,  7681,   856,-11088,-23837,  4275,  -26801,-11893,  6684,-21849,  9549, 25577, 19156, 17073, 10803, 13739,   22462, 24437, 16313,-31548,-17976, 14514,-12837,  9875, 15833,-17343,   15200, 32617, 10452, -6425,-17743,-25695,-11495, -4671, -2260, 16280,  -16335, 13144,    97,-11264, 25940, 27506, -5200, 17985,  1661,-17878,   -1064,  6295, -9365,-18043,-13252,  8661, 29277, 21564, 15520,-23502,  -19003,  8848, 20745,-26300,-26501, 25826, -7188,-23012,-19317,-28673,   20198,-10990,-31528, -1772,-13369, -2681, -9846,  5384,-27365, 15940,   30025, 24205, -7365,-29295, 12897, 17536,-29273,-26372, 21545,  2361,    3321,  5224}, {-10449,  7710,-29363,-28308, 19429, 21327, -1332,-20552, 26331,-29168,   29915, 31821,  7773,  8259, 17772,  1571,-22101, 26800, 28971,-24340,    -623,-29472,-10562, 28738, 31434, 24850, -6843, -3651, -8088,-18710,  -27985,-17926,-32733,-15425, 10566,-16131, 15586,  8377,-32467, 17659,   23960,-19334, 11964, 15994,-19780,-23296,-12068,  2613, -4668,  7160,   25148, -8713,-29628, 32496,  -598,  1341, 23593, 16396, 30586, 19688,    3815,-17697,  -677,  8216, 15507, 22286, 29746, -1685, 10692,-17318,    1921,-21307,-28137, 19793,-22548,  4128,-28975, 18301, -8594,-22033,  -25333,-23416,  4327, -7699,-28901,-22820, 18121, 25476, 29974, -2019,   18014, -4272,-24422,  5026, -3344,-23712, -6917,-16677, 15850, 28696,  -31279,-31426,  8082,-30095, -1886,  3172,  6221,-27126, -4895, 25662,  -18825,-23777, 12635, 19718,-18218, -4113, 30103, -9777, 31043,-10996,   -2572,-22718, 19931,-29983, 31942, 11850, 17573, 17666,  2387,-29767,  -31094,  8872,-23597,-12095, 12234,-13026,-14202,-10816, 12058, 30835,  -13651,-21564, 20244, -4298, 24014, 28292,-30837,-17049, 20068,-28489,   25385,  5613, -8072,-16583,-28479,-16571,-16475,-24895, 23392,-26745,   -3467,  5762}, { 20003, -2664,  8410, 13223,  2437, 28577,-31509, -8436,  2713,  6302,    3637, 23952, 28752,-31157,-27998,-25865,-14355,-32739, 21856,-26809,   -3567,  3836,-28365, 14131,-29723,-10784,-26856,-15252,-19564, 25596,    5605, 14709,  1871, -9298,-25510,-12063, 28208,-24561,-15444, 25628,  -26063, 29729,-15624,-27224, 30763, 11449,-13848,-27125, -2574, 21181,   -7539, -8218,-19536,-17053,-15488,-30739, -5876, 18807, 22662, 17753,  -21829, 20963, 16374,-15097,-12271,  -488, 30867, 11292, -9331, 25910,   20956,-27647, 27956, 29920, -8890, 14095, 32655, -7514,-10022,-27831,    8506,-21481,-25562, 12645, 21254, 23123, 31961,-26898, -3528,-26425,   -8717, 12801, 20358, 10077,-29778, 31960,  9769,  -144, 24786, -6249,    8030,-14773, 20239, -6907, 17044, 21478,  5642,-32216, 32415,  -737,   30378,  2331, 30211, 19075, 23514, 21736,-26068,  7708,-10827, 12164,    -645,-12809,-31311, -1426,-24807, 21044, -9486,-27585, 24184, 28465,  -22059, 19233, -1429, 20855,  -508, 13276, 24260, -8173,-12935, -1106,  -20159,-13553,  2915,  5543,-17145,-28040,  6402,-30089,-21144, 26088,   -1968,  -215, 26411,-10291, 12285,-28169,-23115, 32096,-19128,-20415,   28772, 17949}, { 12505, 15701,-22851, 19594,-16933, -7348,-26930, 25241,-24525,-21333,   18789,  4953,  6756, 31571, 12878,-24372,  3088,-32174, 13184,-17449,  -26046, -4373,  1152, 16338, 31543,  3139, 31360, 17117,  3399,-19342,   12207,  1597, 12960, 25252, 11695,-18641, -8912,-31090, 10430, -4502,    1307,-22427, -2419,-27745,-10614, 24431, 28579, -3011, 16079, 25540,   -7878, 26764, 29110,-18357, 28097, 19213,-14360,-18613,-11725, 30894,  -16486,-12009, 27853, -6548, 28312, 18314, 14422,  6659,  4003, 19330,   26473, -3233, 20416,-24152,-10847,-21132, 21347,-24080, 21504,-11623,  -17310,  3403, -7671, -1773, -1647,-14786,-19995,  5376,  5772,-26562,   -1411, -1825,-12868,  9941,  -387,-29382,-30533, 28354, 23852,-18309,  -16194,-25015, -4292,   461, 11317, 23874,-11171, 29438,  5084,-10545,   28924, -9095, -9572, 13263, 15024, -7113,-24127,-17835, 17956, 10263,    5804,-18071, 16789, -7870, 27382,  6296, 18456,-27158, -3763, 28584,  -29837, 25701, 13722,  8563, 16139,-11819, 22840,  2468,-23486,-30061,   27133, 10010,  8269, 13217, -9166,-20200, 13539,-17295, -4748,-32347,  -22436, 29861,  3551, 16299,-21704,-15385, 17700, 12429,  5389,-21262,   -9197,-16117}, { -2836,-10763, 20433, 31186, 25484,-20097, 19159, 26968,-22771,-21935,  -30793,  6664,-26579,  1243,-12442, 30401,-14127,-23090, 23131, -2837,   15378,-12167,   442, 21399,-30915,-16788,-32397,-27765, -3911, 16354,   24924, -7561,-23385,-17286, 28037,   463,  1955,  7508, 24777,-16650,  -13053, 14682, -2088, 28167,-17420, 13959,  7809,-22204, 12436,  4866,    2938,-24699,-20097,-17954, 12849, 21002, 13729,  5372, 21952,  3703,    3426,-18843,-13011, 17801, 26006,-11281,  8089,  1871,-10685,-13379,  -25449,-24744,-19324,-23406,-12645, 24285, 16727,-10926, -3995,-15710,  -30505, -6636,  -660,-14378, 19314,-19365, -4759,-10983, 21873,  7320,   25422,-31643, -7178, -3680,-10245, 24676, -8458, 29515,  4410, 31749,  -31676, 29491,-21669, 22990,  2468,-16935, 28690, -7234,  2565, -9155,   20810, 19344,-27004, -5690,  6415,  2959, 25404, -4176,-28107, 21616,   22880, 11291,-22711,-12685, -1397, 22893, 28931,  4999, -9774,-21812,   -3343, -8704, 31416, 28609, -7559, 16333,-27109, 12068, 26800,-21297,   17510,  5894, -8897, 11736,   960,-11763, 17600, 17732,-24311,  8512,   -4987, 27904,-31382, -1477, -2422,-11045,  5046,  1142, -9571,-23563,   -1835, -2132}, {  1601, -4733, 27807, 18028,-24581, -4614,-27884,-20942,-24387, 10735,  -27995,-15811, 26672, 30746,-23499, -6241, 13834,-22583,-17400,-31514,   -9715, 15184,  9832, 10634, -4991, -2706, 12419, -4514,    95, 26077,    1670, 27673,  7726,-28770,-26303, 11513,-18935, -1189,-22721,-29626,  -11617, 22545, 14850,  1330,-25213,-22842, -5953,  4570,-19929, 16130,   -6001,  2323,-17733,  4582,-22690,-21664,-26660,-31990,-10270, 10405,   32453, -9153, 18109,-14358,-16297, 11822, -6549,-29385,-30425, 15505,  -20306,-14894,  3725, 12250, -1712, 11819,  9757, -1804,-25720, 11851,   -7105,  5071,-28983,  9394, 25397,  2961,  4453, 17335,-24226, 15457,   20465,-27929,  6079,-15396,-14456, 16473,-15240, 12674, 30614, 22624,   19106, 13219,-29613,-32297,-16968, 20397,-18867,-25009, 15349, 17778,   -6889,-21614, 32684, -9685,   458,  6437, 30683,-16715,-16647, -6775,  -28754,-18995, 29779, 22386, 26502,  -703,-13998,  9387,  4227,-25349,   10668,-25858,  2244, 15568, 18505, 15301, 11843, 15144, 28116,-13265,   16537,-28461, 22581, 16789,  6257, -1749, 32128, -4946, 25034,-11218,    5338, 32342,-14894, -3302,-14569,-17461,-24199,-25290,-30990,-19758,   12201,-21646}, { -8207,  7291,-25766,-14965, -2214,-27918, 16247,  7908,  -148,-29852,   -2210, 15612, -9771,-24458,-31961, 25023,  -705, 12681, 20711, -2267,     614, -3519, -2148, 16630, 14089, -7954, 17118,  1621,  -104,-31120,   31054, -1841,-32043,-26843, -4328,-15404,-11731,-32397,-13434, -1376,   -9427, 21623, -7705,-20570, 27552, 18420,-31050,  7510,-17634,  -157,  -21069, 12212, 31698, -2937,-18317, -8088, 10773, 17203,-23316, 19460,   23657, -1989, 17048,-32464, 24738, 16422,-12190, 29560, 13972,  7544,    7894, 23271,  7207,  8244, -3980,-15564,-12372, 16364, 16416, -6040,   23528,  7954, -5620, 12237,-22978,-29470, 26945, 11040, 22924, 23852,    5124, -1802,  6446,-16093, -3219,  1400, 27743,  4681,  1792, 25958,    3796,-25218,-24326,-32250, 18551,-24028, 23770, 16679, -3977,-30410,   11078,  9928, 11382,-14350,-14448, -3527,-14863, 23936,  7593,  9844,   29603, 14360, 27331,-26992,  2042, 15987,-10563,-21730, 21699, 31114,   31916,-24420,-31682,-15315, 25182,-26923, 26568,  3917, -3558,  3981,  -21221,-23791, 20831,-28594,-18000, 10071, 21990, 26600, 17599, 16166,   14115, 14191, 23352, 18890,   571,-17701,-11096,-19877,-23995, -9091,  -21996, -1890}, {-11600,-14296, 31357, 15104,-15290,  6243, -4866, 23365,-17201, -2065,   23515, -2292,   915, -7457,-23826, 19772,-18201, 18240,-28160, 21128,  -29884,  7891, 17535, 20160, 26291, 30320, 20382,  2517, -1673, 16165,  -23098, 15492, 11091,-31511,-32397,-24280,  1408, -4655, -1459,-31857,   -7246,-29224, -7029,   -45,-25407,  5102, -7218, -4085, 15810,-28088,  -19252,-28742,  -490, 28481, 18251, 29386,-24048,-21479,-19331,-18319,   27557, -9741,   994,  5193, 10929, -5512, 17988, 19391, 16962,-17334,   -2145, 30472, 23444, 10232, 15512,-31486, 12182, 20973,-30026,   863,  -30510, 23789, 12727, 16224, -7215,-13255, 25116, -9987, 20803, -1845,   22552,  8335,-14822, 21072, 23771, 26243,-23324,-27766,-11567, -3623,  -26304, -3976,-13329, 26110, 23869, 26478,-20681, 30184,-19507, 17970,  -15292, 31741, 14891,  1948,  8034,  2880,-21409,  9770, 21097,-31772,   27377,  6658,   408,-19385, 27378,-16781, 26807, -5187,  7489, 24235,   26382, 20526,-13621, -6073,-18867,  3177,-21109,-17081,-10250,-11602,   17867, -7191, 32739, 20347, 16471,  -278,  9013,-30112,-28200, 16932,   30647, 31618,-30604, 27025,-20073, -3514,-19435, 25801,-29494,  4216,    9000,  4886}, { -2751, 32338, 12471,-15705,  9102,-23442, 29446, 31350,-21359,-20582,  -15568,-22972,-23018,  2313, 17920, 15382,  9048, -9380,  6450, 16863,    8359,-17792,-24870,-24989, 29977, 14990, -2041,-13220,-10871,-10795,  -11532, 22014,  3060, -1770,-11852, 25990,-29406,-13708,   831, -6735,    3703,  -282, 10415, 15614, 21604, 23857, -4838, -2649,   -41, -2127,    9355, 30664,  3165, -9081,  1355, 12646,  4229,  2882, 24806,  3704,  -24342,-16119, 15542, -7179, 27431, 31603, 31304,  2074,-10726,-25367,  -13807, 29722, 11785, -4110, 12115,-15627, 21675,-20817,  -872, 26386,   23285,-21265,  8627,  5926,-12072, 28359, -7748, 25470,-19030, -2758,   18354,  1912,-27098,-18478,-27555, 25778,-16399,  3280,-26444, 30520,   10866, 16128, 25624, 18903,-31516,-10376, 19068, 20840, -3877, 23104,   11304, 12662,-30485,-18709,  2173,-13068, 20950, 20241, -2559,-32745,   11728, 15675,  2581,   532, 27211,-25329,-24943, 31272, 15934, 23859,  -12413,  2387,-28184,-24131,-13897,-15172,-18736, 11392, -8275,-12974,  -21779, 17274,-10817, -8227,  3306,-26776,-13451, 30677,-19682, 25994,  -28222,-19950, 26112,-22411,-30163, -8031, 28898, 13006,  4557,  2941,   -1830, 26842}, { 14579, 29165, -1524, 22758,-12819, 31446, 15685, -2181, 29519, 14908,   13378,  4540,-15320, 28413,-12196,  6197, -3123, 31614, -6237, -5658,   -1430, 30720,-31542, 32156, 25358,-20829,-23454,-27185, -5512,-14905,  -20626,  7956, 29694,-11090,  3864, -8438,-17254, -8120,-16135,-13050,   24283, 19945, 19032,  9545,  6847,  9206,  6291,  5090, 22326,  2389,  -15867,-14016,-31627, 21628,  6713,-14370,-28787, 31697, 32556, 28844,    2366,-27182,-16928,   236,-13617,-18222,-28610, 10837,  7938,  4310,  -24213,  8673,-13136,-23912, 29242,  9280,  9396,-20912,-27749,-10039,  -15871, 13267, 10501, 26828,  2263,-25395, 26868,-32486, 21827,-30086,  -24120,-28357,  2107, 32364,-18480, 31265,-17419,-19251,-11300,-29981,   28297,-28434, 29969, 23892,  9271, 14123, 26452, 17708, -4136, 25130,  -19361, 32547,  4284,-14833,  -513,-28157,-10013,-16185,  4689, -3587,    4846,-30305, -7693, -4045, 16119,  2801, -3895,-11329,-11561, 19267,  -22694, -3871, 30088,  9783, 20844,-26221, 25245,-21240, 30475,  9943,    1824, 20101,  5502,-26054,  1693,  2434,  5005, -9525,-25111,-32224,    -853,-27379, 21690,-26958, -5907,  4381,  6174, 10585,-10746, 13246,  -20267, -9876}, {-15863, -6175, -9789,-25339, 26620,  4355, 14321,  7277,  5563,-26633,    7714,-23574,-12115,-29108, 26904,  8287,-17282,  7079, 29215,  7310,  -13650,-29014, 19116, -9081,-22859, -7902, 26840,-15174, 17748, 20228,   -9469,  7469,   320,  3714,  6507,-12260,-30439,-23166, 16794, 13022,  -12033, 21943, 25685,-17620,-13075,-17384, 15284,  3180, 25095,   470,   20028,  9043, 29131, 26771,-28239, 27289,-15802, -6751,   404,-10418,    1502,  1130,-16990,-21470, -5580, 18304, 30300, 21008, 31938, 28837,  -16089, 12473, 10301,-26113, 16807, -1204, -1930, -2175, 23438,  2215,    7063,  8596, 11951,-25587, 22776,  5599, -1404, 25157, 25236,-25658,   32661, 18396, 27261,  9719,-32759, 29303, 21168, 23913, 18344,  5567,    6718, 11068,  5711, -6728,-24935,-26072, -3070,  9357,-24103, 15781,  -21282, -2463, 14399,-32704, 28164, -5361, 14113, 17720, -1912, 21660,  -24211,-20436, 22552, 28091,  1676, -6501,-10855, -7404,   379, -6670,   -8227, 13061,-17668,-30184, -4572, 26960,-23024,  9335, 27093,  7175,   26391,  -300,-12177, 29204,-22265,-31231, -9241,  8210,  6557,-18896,  -28278,-14933, 26063,-10200, 18882, 18022, 25417,  7878,  -515,  1519,   -4060,-20543}, { 18921,   686, 19265,-12474,-30141,  -553,-17943, 19682, 25739,-16027,    9345,-10726,  7297,-18336, -1940,   843,  1172,-10846,  2594, 13625,   25807, 28395,  9679,-25307, 25916,-30987, -3788,-26561, 17585, 30333,   14263, 22876,-12474, 28762, 11174, -6146, 18511,-10329,-15052,  7954,   12424,  1320,-21578,-15920,  3174, 23852,  2001,-20470, 29371, 23938,  -12870,-17028,  -617,  8211,-29153, -3948, 16520, 25103, -2357, -2841,   -7563,-18771, 22437, -2346, 28238,  6426,  9187,-28803,-28726, 10368,   24461, 22327, 11382, 15503,-25340, -5922, 31472, 21885, 27648,-29541,   -5691, 18994, 31126,-29681, 30162,-28498, 28484,-24472,-18580,-23648,     905,-23142, -4384,   380, 24438,-21918,-22127,-21592, 32550,  8368,  -25696,   -63, 31375,-19077, 27237,-29050,  4734, 21262, 18928, 15555,     893, -7952, 29939, 22751,-20911, 15372, 23562, 18039, 13921,  2227,  -21677, -2393, 27024,  3872,   955, 23771,-25126,-31271, 15978,  -829,   -6591,   511, 19661,-15113, -5599, -3616,-29267, 24573,-16112, 18270,  -29638,  2217,-16387,  3314,  -374,-12093, 10777,-14318, -4208, 17443,  -21958, -2970,  7302,-26550, 21132,  5145, -6206, 17828,-31432, 27607,    9742,-13216}, { 14160,-15708, 26242,-22080,-12314, 23603, -1925,-23364, -3558,-19979,    1474,-25977, 15663, -8282,-22326, -2510,-16495,-13177,  7844,-17855,   18038, -1131,  6405,-19780,-19194, 16467, 25262,-28056, 25647,-18836,  -15937, -6383,-31015,-16732, -5153, 14948,-12595,-32189, 31899, 26839,  -22683, -6648,  2462,  8442, 13340, 32297,-19529,  5482,-23862,-28565,  -31871, 19331,  4544,  9473,-32648, -4263,-19515,  1800, 31240, 28458,    4113,-10146, 14583,  4162, -5439,-24127,-24978, 32219, 29086,-24451,   16622, 27121,-14308,-10760, 32499,-21530,-16907, 28695,-15849, 23550,   20566, 31305,-20498,-28753,-16966, -4371, 21917,  -178, 19462,  2588,  -21540, 27777, -1029,-17737, -9627, 12427, -3164,  -514, 15684,  9256,  -28832, -4066,  -285,-17510, 21110,  8314, 29208,  7531,-20319, 29074,   28334, 30180,  7157, 24514, -4470,-25116, -1110, 15349, 28136,-18940,  -27304,-22571,-20284,-21251,-31728, 32336,  6092, 16891,  4000,-32332,   17451, 17740,-29077, -2402,-10579,-23567,  8820, -5033, 22907, 12756,   28021, 26094, 23998, 11294, -8730,  2973,-13974,-31322,-30310, 22552,    7507,-23399,-20136,-19530, -6060,  7798,  5308,-23104,-19907,-31623,  -21332,  8997}, {-14432,  9039,-14560, 27774, 20792, 17152, -1639, 20713, 12404, 20077,    4855, 15898,-13525,-11232,-11975, 10714,-21761, 25890,-12294,  8448,    5788,-19224,  3769, -8241,  1752,-22130,-15781,-19010,-31254, -4383,   18819,-31469, 22557,  -397, -4274, -8404,-20191, 11437,-30411, 19425,    6015, 25138,-10139, 20204, 31264,-25130, 14602, 28156, 27358,  1756,   17591, -3883, 29602, -1707,-28918, 18017, -4774,-18418, 23321, 11699,  -28105, 22560, -7092,-20052, -3582,-26007, 23022,-25916, 32280,  1249,  -22250,  2588,-20824,  4220,-24764, 30444, 28290, 15115,  2407,-30868,   29303, 11381, -3478, 15837, 26479, -1445, -5649, 10044,-17643, -8886,     -43,-14262, 30713,-13663, -2009,-25711, 19001, -8200,-24566, -6585,    8958,   160,-27526,-10700,   906, -6170, 30004, 32217, 15362, 13699,   12594, 17969,  5626,-25166,-29949,-26173,  7286, 13548, 23950,-15367,    8926, -9640,  6133, 28648, 19555, -8332, 24154,-10194, 22705, 19549,   -3395, 10523, -7360, -9484, 15195,-25622,-10048,   298,-13786, 20306,   -1587,-26332,-23147,-28564,-26053,-14608, 30739, 32059,-21542, 16794,   21561, 28731, 15443, 27100,-26419,-16155,  4839,  2453,-21716, 27506,  -17518,-29137}, {-19847,  6809,-27679,-11942,  8483, -7538,  4296,-25030, 30349,   349,   14257,-18332,  2697, 29767, 18107,  1990,-21886,-26100,  4078,-30924,  -21344,-15290, 26216,-12931,-25034, 24736, 21673, -3845,  -146, -7722,    9794,-16947,-15376, 26456, 14169,   617, 14362, 25096,-24662,  1826,   10003, -8878, 29929,  -216,-31682, 30697,-15424, 11830,-31364,-13744,    4464, 30113,-29528, 15945, 16854,  1805,-25941, 20232,-23661,  4239,   -3531,-19599, -2571, 11835, 11451,  8647, 16900, 27425,-20769, -7216,   -9087, 22757, -3094,  3298,-23859, 27693, -2880, 24449,  6677,  1116,    3221,-11639, 24757,-30404,-15844, 16747, 19051, 28323,-13806,  6041,    5300,  7848,-15654,-24761,-17147,-15476, -7001, 31210,  -327,  4006,   24823,  4033,  5507, 23130, 21941, 16692, 27960, 22889,-21287,-15241,   -3770, -5987,-20332, 12011, 27541,-11084,-22552, 31256, 10304, 31064,    -720, 16149, 26488,  7109, 27957,-13914,-27438, -5407, -5501, 11650,   19831,  -854, -9998,-16938,  8472, 15025, -4428, 31822, -3741, 15802,   32610,-26452, -7207,-26417, 27475,-16003,-22967, 22330,  4419, 10222,  -15471,-28422, -9432,-13528,-26531, 16043,-28322, 15508,-19082,   -83,  -26317,-15305}, {  5112, 24105,  6944,   785, -4654,  9430,  -401,-28301, 11879,  4298,   18084,  8429, -1956,-27444,  7827, 26797,-10527, 11881,-11351,-17278,  -23636,-12563, -6399, -5150,-13350,  4672, -2057,  7745, 23671, -8373,    3708, 15654,-19941, 18387, 21696,-26513,-31941, 12004, 19090, 22273,  -28795, -5611, -9223, -3307, 31421,-16059, 19659,  5836,-12068,-30660,   -1940, 26623, 20272,-19883,  7225,  7352,  1441, 26881,-24325,  1694,    6873, 29451,-31265,-22119, 28052, 28541,-16167,-11909, -4697, 27895,   16903,  3604,  2280,  8354,  1065,-21490,-29283,-11694,-25353, 25009,   -3450, 29717,   -67,  4853,-17385,  8573, 29724, 29642, -2664,  3654,   32610,  2223, 12486,-21924,-12459, -5440, 12123, 24745, -5055,  6658,  -32731, 11171,-19409, 24412,-22772, -3772,  5528,-22340,-22954, 18171,  -31966, 30233, -8638, 14380, 24110, 19112,-23311, 23610, 17068, 16844,    6174, 24515, 26653,-15983,-11478, -7534, -2074, 27578, 25668, 19035,  -24994,-28645, -8842,-27012,-13090, -5236, -4524,-27347, -1417, 22886,   -7797,-11733,-17600, 10062,-26797, 16114,-12926,-14450,-21336,  2069,   20020,-22375,-16230,-20257, 22356,-26528,  2946, 12141,-32732, 21346,  -24132,-27253}, { 16660, 18516,  7875,-14821, 26643, -6930, 24581,  5094,-30591, -9926,   20725,  3781, -9707, -4383,  7276, -9735,-31561, 27305, 16913,-25836,    6274, 13333,-23192,   320,-17437,-22411, 30085,-15421,-28411,   305,   -4346,   756,-15742,   723, -2221, -7559, 28751,-17729,-21091,  7742,   11725, -6708, -7564, -3268, -4819,  -915, 22087,  6604,-20209, -6495,   28849, 23414, 28899, 28137,-17156, 12330,-21734, -5094, 22896, -6200,  -32584,-23871, 28583,-20696, 15118, 26551,  1211,  5349,-26676,  3917,   17331, 23719, 31477, 16544, 31161,  6921,-23378, -4542,-21193, 10433,   -7113,  3778, 32602,-29028, -1774, -8867, 22280, 32380, -8002,  9980,   28989, 24959,-11814,-13718, 25697, 19606,-14400, 30257, 16261, -4532,  -22068,-21537,  5519,  -345,-27451,-22012, 29138,-26679, 30205,  -695,   15118, 28183,-26066, -9253, 14575, -9320, 16746,-20670,-12685,  7887,  -29232, 29728,-26385, 16783, 10045,-26199, 26293,-25626, 30240, 17963,   -4673,-18746,  6274, 12922, -5934,-28209,-23588,-32138, -1013,-16885,   31405,-11727, -5147,  4950,  3550,  -489, -4656, 30328,-32697,-28535,    5433, 10424, 30832,-26495,  6898,   885,  8928, 14958, 31862,-10447,   26473,  7756}, { 19226, 12909, 18337,  3261,  3832,  4373,  6839, 13991, 11299,-14402,  -31160,-18331, 13816, 11840,  4741, 21862,  6896,  3053,-21172, 11212,   31923,-32222, 15369,-21254,  9066, 11810, 13543, 31487, 29794, 16648,    5286,  2672,-22885, -3556,  4549, 26738,-24806, 32592,  1676, 31041,  -27403, 29261, 13233,-15708, 12386,-16780, 18564, 11024,-30046,-32462,   32406,-15630,-31994, 19540, 27918, 14129,-19129, 25499,  6314, 10676,    3752, -8678,-18766, 26597,-32488,-32743,-14665,  -901, 23663, 19201,   25082, 14753, 26735, 32371, 13035, -9376, 28596,-21394,-27047,-11572,  -32078, -7826, -1909,-25346, 19169,-23698,-21643, 14256,-17383,-25471,   28521, 25727, 25171, 16786,-17056,-27557,  8723, 13281, 24658,-12306,    5955, 21371, -8579,-13953, 16946, -1055,-32307,  7511, -3809,-21878,    -278,  8172,  6564, 13383,-21446,  9323,  -592,  8892, 31673,-29743,   -7173, 24716,-30502,-18583, -3721,-25065, 10506,  8967, 29045,-20699,   25998,  8344,-14200,-25520, 19160,  -484, -2188, 30882,  9492,-32374,   13322,  1337, -7112,-12254,-22226,-20334,  9456, -7810, 25550,  7337,   -7024, 20920, -8518,   -77,-20123,-26700,-10852, 28534,-13061, 21183,  -10901, 20783}, { -9141, 16740,-30464,-16941, 20378,-16994,-21920, 22504, 21907,-31719,  -16148,-19006,-31508, 17777, -4136,  5379,  5182, 16049, 11312,-16714,  -15940,  6160,  1437, 11542,-15387, 25901, -8123,  7934, -4578, 19446,   14335,-18381,  5507, -3705,-21518, -4880,-16374, 13805, 32573,-28999,   14106, 31461,   469, -9614, 29193, 19081, -3319, -7116, -3401, -9567,     358,  4931,-20846, -3771, 22398, 14832, 23658,-19642,-15876,  2020,   30722, 19348,  5083,-31926,-16626, 24185, -5308,-13068, 23205, 19878,  -21583,-22096,-11209, -1436, -3362,-17978,-29794, 12575, 31713,-31380,   25649, -2948, 20967, 12063,-11493,-15267, 20784,-22267, 12244, 10047,    7769,-23631,  6469, 15923,-10938,-15169, 17425,  6581,  2009,-21352,  -28355,  7751,-10972,-28958, 19751,  3632, 10552,-10848, -8100, 23742,   -5238, 22861, 10338,-16541,-14034,-14670,   538, 21851,-24177, 15025,   21406, -7820, 27149,-14221, 27801,-15076, -3497,  2849,-13092,  4186,    8189, 14796,  4486, 12983, 17117, 30652,-25252,-16794, 20795,  6620,  -16559,-21048,-11805,  5911, -1420,  8917, 11730,-32666,-27214,-26706,    9069, -9086,-14833,  2234, 25468, 14266,-13080, 27293,-28347, 10408,   -6420, 14931}, { 29198,  2234, -7078,-12075,  9395, 10892,-12430, 24794, 21433, 19138,  -30717,-26706, 18242,-12519,-13251, -9758, 30435,-12740,-11244,   438,   29830, -2540, -6217, 13342,-28573,  8549,-18870, -1222,-20028,-28684,   25498, 27963, 18169, -6731, 31171,-25038, 21226, 28269,  4229,  -531,   -9816, 11426,-25655,  4913, -9620,  5094, 15894, 11612, -5289,-26967,   22111,-29579, -1947, 16298,-11524, -9041, -2955,-17117, -5942,-11635,  -16184,-10623,-32432, 11007, 20834,-32123, 32448,-20056,-17838,-19854,   14816,-16561,-30278,-13704, 19143,-21691, 18166, -9585,-32746,-19885,  -17572, 21765, 13004, 23005, 22147, 20155,-17117,-25982,-19769,  8498,   29285, -5563, 26130,-12002, 10661,  4037,-24390,-13457,-27639,-21438,  -24115, 14185, 16798, 19777, 27167,-28769,-15359,   415,-19563,-14468,  -23996, 24716,  7144, -4094,  6624,  4958,-31130, 16960,-11242,-13497,   32388, 31278,-11366,-27942,   726, -3891,-22176, 16979,-20214,-26203,   14785,  5971,  1859,  9418,-30285,-11003, 32367,  2932,-17126, 23541,  -15009, 22766,  5013,-13996, 32043, 14885, 27841, 23210,  2536, -9722,   21567,-23070,  9141, 21479,-11515, 29727,-23672,   811, -1774,-14708,  -22992, 17320}, { -7615, 14857, 16877,  -622, 23823, 24649,-18350,-21698,  1599,  7763,    4857, -6929, 15614,-22868, 21818,-20122,-19916, -7073,-14714, 20965,    8682, 22031,-22278,-10376,-24644, 31438,-28927,  1303, 22449,-32270,   -4625,-21449,  1912,  4923, -3946, 10112, 24552, 19785, 24996,-30556,    1797,-11443, 11291, 30979,  9375, -3125,-27808,-30474,-27089,-29910,  -12599,  9670,-12531,-28887,-10412, 24289, 23736, 17743,-26132, 11692,  -24754, 19795, 30561,-18624, -1976, 10071,  4009, 31215, 28752,   512,  -28280, 30656,  6907,-16602, -4042,-27216,-29546, -9613, -3251,-17769,    1399,-14622, 24184,  6480, 13021, 21769, 25354, 25453, 20587,-28029,  -17019,  9048, -4869, -9221,-10752,-22020, 27864,-28707,-14261,-22419,   24434, -8233, 16050,  -527, 15588, 10589, 14678,-32236,-14933, 15555,  -29751, -5950,  4696, 20141,  9062, -7989,-31084,-31416,-22606,  -467,  -23917, 26197, -6130, 16669,-13006,-26445, -2792,-14400, 10439,  1792,  -18226,   787,-19721, 22784,-24496, 27436, -5142, -6768, 20175, 20577,   27369, 22543, -2888,-19341,-21529, 31283, -8990, 29171,  8211, -9177,  -29700, -6576,-24936,-25967,-26306, 24133,-26120, 12169,-19300,-10405,  -16028,-29208}, {-13256,-24554,  9647, 26989,-26637,-32442,-23233,  4756, 30081, 19813,  -20306,-10208,   584, 30442, 14702, -1417, 23709,-22319, 19983, -1697,   21794, 19191, -5076, 29422,-10017,   741, 30074,-19252,-17541,  8698,   16789, 31211, -2888, -7152,-14224, 31755,-14082,-21492,-15007, -2104,   28857,-22028, 25707, 27477, -9130,  2442,-28246, -1583,-32075, 18090,    2191, 21285, -8590, 28264, -1581, -5716, 27681,-13012, 25842,  8548,   26062,-13273,-23074, 25027,-27426, 19625,-26318, 23452, -7815,-28954,   14203, -6580, 29595, 31620, -8294,-17503, 19398,-21445,-21980, -6586,   -7466,-14861,  1905,-28470, 16408,-11193,  5013, 22860,  -406, 28872,   12914,  3455,  7101, 18017,  4126,  5074, 29687, -9285, -4657,-14956,  -11052, 10345, 26115,  6769, 29412,  8456,-21570, 16777,-18626, 17444,  -24282,  9155, 11744, 21114, 18228,-27467, 25018,  2522,-20437, 14952,  -13248,-27041,  -289, 18174, 24655,  5456,-25356,  4554, 17679, 28106,  -15566,-24573,   953, 29483,-23535,-24797,  8140,-27851, 15009, -7890,   -4865, 30287, 23006, 19888, 19248, 18116, 11279,-14660,-30922,-30689,   10344, 11282, 10991,-10667, 16738, 20087,-14376, 19469,-14252, 20993,   20457,-16345}, { 30766, 28868, -6477, 30082, 27677, 31161,-27971, 29247,-14863,-23263,   24272, 25749,  -904,-15718,  1126, 11591, 17433, -4172, 23966,-16759,  -27552,-18892,  6354,-16593,-23599,-13534, -8711,-31569, 26323,  1287,    -344,  1040,  1296,-17290,-18862,  3498,-13830,  3371, 18250, 16110,   19021, -3918, -5178,  7875,-19211, -9236, 16781, 17538,-25759, 20490,  -14833, 14513,-26116,-10016, 15515,  9162,-11988,-13017, 14154, 29978,  -28611,-26176, 20596, -3493,  3929,  6127, 26174, 25006, -9660, -2082,    8772,-31869, 18374,-31274,  7663,-21144, 25650, 23679,-31840,  2186,  -24110,-11613,-13504,-17799, 30785,  8758,  7742, 23038,-15665,-13504,  -15443,  5958,  -519, -1711, 14551,-32545,-14586, 13517,  1636,  4317,   25845, 19498, 17492,   580,-16305, -3327,-12110,-11695,-17130,-13128,  -11217,-21800,  6322,-29984, 11195,  3826,-12647, 28461, 27971, -7564,   25079, 32073, 29430, -5149,-23166,-17727, -9502, -8527, -7780,  9307,  -25289,  6314, -2407,-30698,  2359,-10741,-20671, 25602,-14918, 14030,    6385,-12659, 10272, -4334,-14279,  5484, 14327,-26066, 13729,-16442,  -10018,  2812,  3970,-20561, 31071, 26699, 17302, 20511,  2089, 17271,    7889,  4297}, { -9577, 31087, 19962,-12727, 14109,-11930, 12851,-31761, 28358, -3823,  -14011, 13172, 27577, -9657,  6694, 20960,  -331,-21209,  8554, -9697,  -11676,-14256,-17696, 21830,  -959, 30009,-22429, 18702,  3420, 25666,   -7336, -6254,-10581,  3812,-26906,-23728, 11728,-20036, -6219, -9151,   15156,-31594,-11599, 28626, 14862, 10242, -2889, 21237,-15675,-15061,    2228,-20250,-24857,  2889, 17413,  2552, 27851,-22972, 32522,  -477,     259,  4262,-26049,-10053,  2568,-31832, 31516,-14885, -6804,-29794,   -9760,  7526, 10555,  1223,-29457,  6400, -1108,-29088, 23368,-18877,  -15738,-27011, -2020,  8459,-25606,  5928, 21720,-12354, 17466,-17864,    4666, -4946,-20162,  5505,  6440,-24343, -6147, -4415, 24840,-11483,  -22592,  5463, -9887,-30541,-10541, -8948, 28917,-28743, 10380,-17346,   -7380,  1530,-29469, 16680, 27240,-30405, -7963, 14742,-30747, 14017,   -8014, 29747, -7963, 16051,-19894,-26486, 29106, 16327, 19581, 19441,  -11038, 28931,  2227,-22638, 26216, -4215,  1242, 31910,-28074,-28633,   -6914,-29932, 21124, 24031,-27505,  5084, 23233, 30920,-24618, -3177,   19019, 26789,-19080, 18172,-25606, 17286,-30918,  1112,-19632,-19501,    3093,  5273}, { 15379, 16320,-32511, -2562, -9308,-11368, 30657,-29697, 31855, -4641,  -10716, 26230, 30946, 17072, 32434,-25280, 27971,  1665,-31676, 27568,  -11301, 13627,-20837,-30714,-24401, 32193,-13732,  3201, 12143, 20342,   28426, -3374, -9949, 10883,  4770, 23815,-23488, -4118,  9026, -4161,   25136, 21882, -3390, 15651, -8822, -1963, 12474,-17580, 29007,-16204,   23487, 24337,-32589,-28025,-10086,-20804,  2674, 14739,-16068,-30381,   16928,-21477,-22462, -4274,-27725, 21397, 28695, 29962,  2425, -8019,  -18634, -3462, 30443,-18255,  4813,-20089, 31000,  6797, 21018,-22949,   -1479, 20099,  2231,-28307,-20196, 25041,-27278, 22075, 10080, 29641,   -4689,-16174,  4613, 32225, 12690,-10551,-25157, 29745, -6358, 17416,  -23042, 11488, 12098, 11830, 11160, -2566,  7389,  4005,-23715, 13809,   30290, 27725,-24748,-31447,   310,   422, 10358,  8415,  3608,-21327,   17860,  8689,-31238,  3133, 14051,  -694, 19927, -3618,  6273, -5879,   12287,  4386,  8820,-11174, 13972,   223,-20746, 21871,-22422,-21704,   15096, 25983,  1879, -7426, 18243,-24433,-21548, 14799,-10861, 30874,   -4797, 18695, 24953,  7187,  6073,-26596,  1957,-22295, 17867, -3425,   13308, 20722}, {  8388,   867,  -929, 18614,-13733, 21094, 18661,-10595, 13283, 24972,   -7993, 17674, 21323,-19483,  9511,-30732, 28822, 20983, 17937, 27514,     617,  2835,  6583,    97, -8512, 29051,   323,-18132, -9138, 32043,  -18464,-22465, 10659, 16396, 20187, 30837,-16606, -5958,-22219,  4242,  -17116, -7238, -8771, -8831,    14, -5536, 27686, 25492,  6224,-25644,  -28045,-12414, -7074,  8565,-23729, 14092,-10659,-11506,-12555,  7230,   10923,   795, 12723, 20123,-27442, 17386,-18536, 19080, 19397,-15036,    6494, 19997,-23422,  7906,-17240,  3701,-10790, 27907,-13517,-20668,   15483, -6446, 30746,-31263,  8836, 10859,-26827,-23749, 21543,-10078,   26952,-13059, 11046,-30040,-28860, 11734,  9168, 11198,-15613,-19677,  -28489, 27392,-26628, 12254, 32267,-19280,  7315, 18392,  6680,   185,   22485,  -206, 25052, -1462, 10129,  1858, 15414, 18233,  1647,  8552,  -11606,  -831,-30934, 26872, 21158, 23466, -4167,  1670,-20228, -5278,  -11758, 14087, 11569, -5110,  8376, -6110, -2787, 30638,-13484, -2358,   23914, -1668,-12677,-21292,  1201, 14355, 13783,-18357,  6363,  6241,   27475,  2792,  5650,-31211, 32431, -3763, 30702, 26151,-20090, 16004,   -4510, 22396}, {-27292,-18975, -3510,-12803, 29654, -9625, 10445,  7964,-32526,-27095,  -22716,-29732, 18036, 31302,-29033,  6438, 14186,-31577, 28596,-28624,   26560, 31277,  7794,-30767,-16755, 25023, 15362,-16821, -5996,-31523,   25428,-14062, 21105, 28146,  7740, 31372,-12019,-15257,   738, -3601,   27162, 12790,-25486,-25234, 23230, 28135,-14733, -5369, 14499,  9661,    -509,-19259, 22580,  5248, -5477, -5747, 30861,   800, 18678,  2005,   13521, 23652, -8302, 21282,-13116,-16338,-12410, -9457,-28602, 24252,   -9283, -4912,-17205, 29083, 28994, 18543, 25353, -6313, 11493, 26939,   31197,-19823,-23695, -1507,-16297,-27862, 11856,-16706,-25173, 24717,   -2138,  1306,  3372,-20705, -1445, 11594,-12452,  2811, -5878, 14379,   16523, 18569, -9899,  5095,-13141, 21508,-14284, 16595, 32038,-30767,  -17787,-21803, 18711, 15415,-26537, 32263, 27364, -4617, 21295,-23952,  -13030, 23668,-17540,-16722, 20146,   899, -4917,-29672,  9556,-16797,    2910, 30077, 26794,-23513,-19133, 23258,-28688,-30608,-23856, 18882,   32630,  3953,-19999, -9999,   843, 23199, -6692, -7031,-14493, 31670,  -11211, -9105,-32400, 31937, 19077,-22446,-32724, 21196,-19574,-30877,    8592,  5228}, {-30709, -2885,-17868, 18188, 15132, -3233, -6745,-13653,-30503,-10377,   -5700,-22697,-16928, 24391,  -465,  6031, 18843, -3566,-19824, 27528,    -612,-23894, 32183,-11164, 30629,   657,-21217,  2682, 12636,-22237,   -5084, 25492, 18019,  9519,-23513, -8454,  9851,-28777, -3814,-25148,   23298, 10300,-15934, 12359,-10875, -8186, 18462, 25689,  8714,-19481,   15684,  2508, -3480,-27038, 15823, -9749,-30299,-10108,  4064,-24905,   32589, 25697, -3341, 30092, 20368,  -743,-13421, 12285,-23839, -5542,  -27446,-26759, 12719, -1678, 29384, 28698, 21509, 14474, 22933,-22644,   14328,  7782, -3875,-10202,-32632, 21451,-12856,-27656,-18157, 10541,  -17890, 19939, -1360,-26662,-17561, 17691, 29063,-16751,-13099, 21684,   24076,-29121,-11564,-17445,     0, 22290,-22254,-12333, 12632,-19534,   -8363,-16119,-18454,-27689,  3168,-29685, 10064, 18657, 24339,-12118,   16691,-15017,-20717, -7849,-29879,-18777, 30719, 11747, 15030,-29794,   -9851, 19987, 15470, 14542, 17552, -6537,-18684,  7383,-10054,-16445,   -4890,-32243,  9821,-25532, 11532, 22500,   568, -7116, -2049,-25618,     707,-28581, -6723,-15902, 11675,  7543, -1702,  8057,-11953, 14612,   25989,-28344}, {  9177,-21178,-17859, 29414,-16391,-19869,-22166,-31803,  8807,-31828,  -11684,-26784, 16963,  8888, 18577,-23238, 12735,-29165,-14268, 13428,   11342,  4269,  6032,-15581, -7436,-15014,  1189,  6256,  8010, -6718,    8489, 19751,  3943, 22946,-17518,  2517,-19835,  4833, 26424,-23785,    8017, -6922,-17233,  1351,  5940,-11296, 22277, 18011, -4051, 27263,   -1181, -9130, 23243, 18007,-15890,-27487, 31692, 26606, 19453,-31210,  -16392, 18667,-13643,   655,-19630,-31906,-24599, 12676,-22524,-30664,  -19722, 24665, 30738,  6464, 24297, -4750, 28529, 16819, -6873,  3582,   18432,-17931,-21648, 20929, -1072,-28262, -5731, 19914, 18912,-22930,  -18967, 10185,  3242,-23799,  9191, -4876, 12870, 19511, 21201,  3728,    6183, 27196, 18471, 10421, 16367, 24440, 12978, 12845, 21864,-27925,    5236,-18770, 26949, 23872,-20831,-28444,  5726,  9403,   593,-22275,  -10455, 16067,  8966, 11917,-22988, 14142, -4362, -1455, 20174,  9177,   25019,-10399, 17820,-24828,  8381, -1115, 29139,-14215, 13744, -1088,  -23042, 22571,-22977, 30584,-17433,-13317,-29616,-19730, 18961,-11252,    9001, 29542, 16404,-26544,-21270,-17023,-27387, 26778, 21549,-15014,   -8750,  3725}, {-32009, 24509,-29321, 12526,-13095,-21447,  7111,-23027,-11858,-13630,   10967,-25253,-24096, 23177, 20456,-14424, 15993, -1082,-19169, -2799,   29055, 27784,  1761, -3388,   591,   524,-15610, 31789,-17178, -9343,   -3486, 11000, 28031,-27965, 20302, 19826, -4325,-19154,-18372, 16841,  -12837,-30053, 15338, 30408,-23926,-23618,  5374,-23877, 13610, -4557,   20582, 11292,-30292, 16324,-18520, 30960,  6864,-30111, -3475,  6711,    1284, 10723,-21881,-12602,-26657, -2312, -4539, 23039, 26915,-16211,  -12516,-32550, 19321, -7359,-24797, -5821,-22897,-21614,-17907,-21654,  -19412, 10035,  5883, -4106, 29325,-16523,-22171,-30743,-32119,-26449,  -13622, 14632, 27936, 26556, 24265,-24454,-17311,-17550,-11855,-13253,   23023, 29452,-16823, -6288, -7599,  1704,-32119, 25084,-19742,-32142,   12114,-18556,  5401,-10364, 12952,-14563, 25600,-31806, -6809,-32176,    -942,  3837,-18471,  6331, 28446, 29176, 19145,-26811, 18261,  2128,  -30681,  8944,-17777, 25454, 22378, 24958, 14598, -6338, 25354,-15294,    4666, -2289, 13774, 13861, 12496, -2077, 31809, 17996, 20955, 20922,   -1238, -6958, 25599,-12656, -7365,-10530, 19612,-22659, 31442, 14261,  -23064,-30535}, { 11292,-15658,-18989, 10378,-25740,-27737, 27017, 20987, 23855,-30586,   -7119, 19413,  6113,  4477,  2829, 14674,-27816, 31115,-21532, 22336,   15717, -8488, 26799, -7776, 12012,-27761,  8179,  7412, 22468, 11478,   -6168, 14273,  -234, 16438,  2539,-15277, 16933,-32033,  1670, 11417,   32323,-30382,-24533,  3381,-25208, -1806,-25933, 16515,-13266, 15229,   29473, 31470, 24437, -9325, 17906, 11163, -1076, -8614, -9416,   754,  -12060,-16649, 25087, 19163, 31795,-22572, 17539, -6377,-28992,-12175,    9077,-21325, 16132, 21504,-11213,  9204, 30617, 17094,  -919,-31592,   -3767,-18401, 19865,   324, 31898,-19245,-11215,-18181, 31960, -2496,   32541,-31734, 20883,-28195, -7082,-29230,-18595, 19812,-24145, 29939,    3948,-32669, 24531, 32640, 11795,-32616,-13304, 25408, 30212, 12354,   -3368,-21693,-31575, 13144,  1155, 28032,  7320, 21222, 12242, 18531,   29477, 27446, -2373,-15695,-30274, 27091,-15698,-27457, 21618,   109,  -15624, 32629, -5289, 24202, -5720,-23051,  8849, -5353,  2511, -7019,   15733,  3752, 29063, 22012, 32210,-13462,-17910,-15042,-22101,  -706,  -30110, 17650,-12038,-24075,-15039,-31982, 20539,-17864,-22489, 23255,   10036,  8786}, { 28529, 24755,-30139,-20045,-30940, 17643,-16174, 22954, -4260, -1847,   12810, 28055, 23065,  5684,-19840, 26186, 30294,  9313,-31649, -3013,     393, -6229, 29696,-18457,-18446, 21171, -7097, 14298,  -742,-18913,  -23833,-31245,  2958, 32241, -2616,  1690,  6978, 23957, -3605,  2601,   -6744, -8889, 10613,-17468, 24300, 16571, 28100,  5626,-30327, 32205,  -14300,-20515, 22602, 15275,-28790,-19743, 31237,  3150,-14695, 18680,  -23071, 12984,  1479, 26505, 24967,-10087,  6646,   910, -5310, 25936,    6784,  5318,-26649, 32373,  2117,-20260,  1073, 19340, -3776, 12019,   -6947, 32711,-28883, 23028,  3815, -6850, 31395,-22525,  8607, 18631,    9555, -9247,-30630,  8637, 27206, -5761, 29450,  2701,-23589,-29209,  -23184,-26169, -3017,  1782, -1828, 30710,-26144,-20798,-29610,-29787,  -17228,-32230, 31457,  1020, 14100,-25777,  9563,-20501, 23965,-10504,   -5661, 29876, 20536,-31712,-32669,-14697, -8545,  3492,  4665,-29541,  -28761,  9080, 16992,  4066, 26515, 16984, 13777, 27243,-18125, -8774,   18000,  -915, 21982, 15799,-17280, 20405,-11773,  7351,  6722,-10621,     173,-28593,-15856,-20873, 26978,-20903,  2071, 21263, -8066, 27158,  -18203, 23417}, {-28100,-30653, 30598, 21332, 30213, 11299, 14156,-25475, 14704, 28842,  -12827,-22811,-17777, 29076,-30323, 24613,  9956, 18742,  5465,-21837,  -22638,-18810, -7421, 19591,-18124,-15260,  9946, 12407, 28957,-15896,    4906, 25941, -5924, 17923,  8141,-14694,-16184, -3658, 29890, 16069,  -14302,-11956,-32144, -9447, 20045,-11502,-12193, 15844,  9048, 10904,    8646,    46,-29291,-18201, -4917, 14631,-22343,-21183, -9979,   652,    4513, 23520,-18834, 25633,  1646, 17727, 20258, 29428,-21352,  7897,   29434,  2229,-13900, 11427, -3907, 13140,-28438, 16976,-17441, 24941,   -8519,-11356, 15049, 11110, 19722,  5875, 26099,-10685, 14493,-29563,   32606, 12634, 22753,  1259, 29353,-31631,-18750, 18543,-32322, 29706,   19780,  1795, 16963, 10546,-32024, -7605,-19329, -5660, 30610,  3531,    3587,-20793, 10084,  8985,-18821, -4922,  8017,  4911, 31200, -8513,   -7112, -3850, 27847,-21690,-18797, 30914, -3101,  1854,-29849, -9200,   23210, 13144,  7419,-27273, -4512,  7603,  5557,-23851,  4704, -8540,    2001,-20895,-20550,  3815,-26380,  9553, 12618, -3472,  4533, 29559,   17449,-13217, 26778, 26524, 32045,-25363,  9685,   354,-26966,-14001,   -5219, 10909}, {-15103,  2218,-16216,  9855,  3909,  2621, 10060,  5243,-14786,  9928,  -22709, -7607, -3064,-23388, -9253, 11545, 30442,-30682,-32574,-12313,  -10780, -7602,-24770, 30485,-16600,-25780, 21360,-30012, -6490, 23924,  -29560,-32402,-10294, -6281, 23351,-10963,-19493,-21104,-16587,  3327,  -21624,  6446, -3050, 13463,-23665,  2358,-10175,-25363,-13085,  8508,  -20144, 29746, -4975,-12583, 23467, 17507, 14992,  2954,-29176,-30390,   14932, -2129, 17919,-32037, 30319,   -24,-20690, -1703,-11256,  5686,  -28855,    -1,-20759, -9747,    -1, -9338,-12653,  3956, 10485, -2515,   12353,-24100, 24401,-18100, 20372,-15305,   390, -3105,  4173,-13880,  -16513, -5696,-10380, 28385,-19707,-14746,  5031,  6134, 15552,  7697,  -21656, -6484,-30004,-12583, -5957,-18689,-24840,  -152, -4501, 27407,    8304,-27555,-31544, -2762,  -585,  -704,-16529,-23692, 16109, 32068,   21746, 14821, 23003, 29557,-16070, -8774, -3371, 14872,-24988,  8199,    4694, 31216,  4764,  9276, -8059,  1565,  7923, -8571, 17131,-15494,   15512,  6262,  2970, -9987, 29094,  6964,-22249, 32190,-13137, 19464,    3122, 28086, -2077,-13055,-25083, -6733, 30655,-11909, -1362, 19629,   27179,  7521}, {-27077,   403, 32127, 16452,     1, 31694, 16580, -3603, 24363, 28807,   12282,-17044,  3300, 20746,  7079, -4219,-19541,-19431,  2175, 25845,   -7263, -4942,-29139, 22965,  3371, 24413, -9113,-18665,-10503,-26511,  -25544,-14019,  1800,-14217,-15485, 26237,-23344, 26797,  9071, -4445,   29121, 26018, 19466,  8758, 15033,-20082, 21886,-28785, 32192,  4040,  -12896, 19982,-17020, 26062, 16713,-15417,-28424, 27733, 28782,-30197,   26520, -5038, 19823, 21848,  5579, -3557,-16745, 29897,  4734,-18869,   11739,-17735,-11198,-12043,  5744,-13757, -2040, 14291,-29500,  9480,   22429,-23304, 31228,  6587,-27908, -2377, 31138,-17633,-27142, 13183,  -29282,-21131, 26535,-22227,  2433, 28705,-21115,-24802, -9275, 22832,     508,  2677, 12176, -6903, 29015,  8603,-14771, 14316, -4955, 16376,   23903, -4740, 11487,-10441,-16809,-29666, -1194,  1864,-23797,-31712,  -24841,-14197, 15767, 18248,   806,-24766,-20484,-21054, 24286,-14035,  -21657,-20717, 19486,-30357,  6188,  6045,-17190,  2430, -2109, 20751,  -21089,-24608,-10108, 26796, 14930,-32668,  -790, 26009,-26622,  1466,  -14407,-15147,   131,-23141,-21324, 16138,-27292,  6534,-12998,-15362,   11995, 30806}, {-18650, 25848, 23382,-23583,  7661,  6806, 17532,  2795,-23331,  4838,   24873, -9336, 13966, 26232, 14055, 12166,  9417, -3606, -2488, -6790,  -12281,  2746,  7052,   877,-27785,-14976, 15564, 29281, -1208, -7788,    1490, 17225,-27889, 21399,-20028,-22360,-14575, -5939, 26002,  8829,   -7992, 22338, 32694, -9126,-18291, 17131,  4750, -8531,-15834, 21159,  -30670, 14726, 18399,  1831,-18913, 15460, -3648,-13885,  5387,-32012,  -14003, 31694, 20637, 10594,  3669,-16539,-16447, 23450,  1235,-16241,   18606, 16100, 28010,-25920,-14199,-27577,-20459,-16541, 10215,-31580,   20836, 30881,-14134,  6593,-13996, 10207, -3492,-22943,-28250, 31556,    6288,  8650,-15830,-11066, 24603, -5259,  2315, 30686, 20169, -5967,     837, 12817, 23201,  8200, 19945,-29345,-30509, -3857, -1779,-29042,  -29332,-11918,-11629, -5358, 20516, 32617,-20643,-27240, 15339, 11954,   -3624, -9792,-25348, 24152, 16461,-27278,-29567,-11170,  8813,-30919,   20384, -3433,-20475,-28629,-27026, 25640, -2632,-12555,-25796,-12976,   13417,-24283, 29662,  2531,-29365, -3582, 30915, 22486, 29388,-15458,   16439,  9741,-17863,-18803, 10213, 12785, 10097, -9150, 17491, 32222,   -4385,-10675}, { 30348,-14624, 26660,-22016,-31894,  3735, 14096, 29174, 26614,  9525,    2322, 18998,-11177, -7937, 12823,  3921, 17345,-14709, 10001, -8777,  -20478,-18821, 20921, 29724,-14665, 15817,  3184,  1177, -3450, -4189,  -10460, 10315,-13701,-14813,-30741,   115,-21292, 22725,-17537, 25167,   24622, 10301,-17832,-28964,-10057, 24280,-10542, 22027,-17667,  8258,    6756, 31669,    22,-18398,-25455, 26663, -7730,-12093,-30406, 20962,  -26351, 32592,-28473, 12880,-31243,  9224, -2717,-29055, 26355,-12012,   26550, 16809, 25415,  5383, 20789, 31119,-19706, -3496,-27815, 26895,   11028, -2335,-30151,-28128, 14648,  2399, 31565,-24673, 13877,-10789,   29588, 28989, 30760, -4088,-29837,  5741,  3960, 19227, 32608,  2620,    5828,-13432,-28314,-25037,-11021,-19495, 31608,-20086, 19490, -1929,   28444,-29391, 16471,-27404, 17698,-15648, 31654,  4574,-32425, 26967,   -7661, 15057, 30328,  7468,-18391, 29094,-29441,   544,-17391,  9771,   29740,-11040,  1840, -2672,-21836,-19014, 13444,-14800, 29972,-25770,  -31908,-19924,-12034, 11598,-14621,  6812,-10417, 27483, 15536, 21742,    -637,  8119, 31966, 18435, 28257, 28912,-16757, 10570,-17767, -1902,  -30230, 15849}, { 21378,-11951, 18415,-15373, 15794, 20939,-29450, 10475,-22764, 19969,  -30771,  5452,-29988, 11528, 20449, -2050,-31878, 26713, -5787, 28175,  -26058, 25160,  3064,-17078,-31561,  5593,-25662,-30719, 27493, 27376,    9607, -4646,-21088, 17935,-26787, 16163,  7238, 19524, 25865, -3572,  -16720,  8601,  7633, 23482, 27078,  9842, 21158,-23177, -1441,  7107,  -27675, -9492,  9318,-31859, 13592, 28501, -8822, -8563, 17352, -6841,  -17987,-20560, 29897, 10425,-23592, -5839,  7005, 16308, 19895, 16222,  -23414, 31602, 13567,-19420,  5034, 21787,-30440,-31040, 23320,-22213,   19119,-19468, 13824,-22274,-16457,-23023, 22731,-31067,-20096,-30953,   22830, 13058,-23787, -5181,-16269,  -621,  2382,  9510, 10464, -2667,   26252,  6218,  9113, 28767, 29936,  -986,   735, 19152,   368,-29578,    8620,-12491,  4297,-26062, 23720,-27069, -5494,-19974,  -300, 14912,  -27610,-11196, 12742, 13338,  4215, 21307,-20918,-16994,-17091,-32448,   22145,-13303, -7916,  2440, -9243,-13085, -1075, 10524, -5489, 28177,  -16404, -7934, -7165, 31013, 12241,-27438,-11243, 17958, 24306, 29527,   -4144,-32421, 13798,-25234,-14690,-28800,-23485, 28778,-23126,-24847,    3849,-19349}, { 23978, 21418, -8776, 28171,-26483,-24214, -9867,-13808,   341,-23395,   15118, 12120, 23352,  1337, -9263, 32750, -7733,-32616, 13171,  4763,  -25755,-24653,-20330, 23644,-27915,-31209,  3080,-18628,-10935,-14208,   19581,  4476, 30878, -9095,-30121, 31417,  8054, 11312,-15927, 20905,  -25031, 20732, -5179, -3842, 32167,-25230,  9481, 17914,-25241, -4919,    3971,-32568, 23776, 17210, 30134, -9367, -3624, 29333, -4329,-14819,  -18478,-27867, 31097,-24851, 28754, -5762,-23873,  2718,-24185,  4433,  -29491, 12605, -1460, -2295,-24372, 11393, 29531,-18127,-21060,-15585,   16091, -4603, 30104, -1508, 21145,-24049, 22646,  3385,-28474,-30376,    8514,  4094, -8509, 30231,  8802, -8346, 12470, -7041, 12892,  5771,   17818,  -565, -5039,-30456,-26526,-24987, 20390, -9328, 22120, 14277,   27204,  3069,-29323, 19503,-17098, 28818,-25184, -8420,-19912,-25130,   10385,  1167,  3152,-29259,-29502,  3283,-30550, 19502,  9232,-27649,   28180, 21967,-19878, 27767,  8686,-21620, 26595,-30506,-15974,-32625,  -28340, 25931, 30394,-26228,  5689, 20944,  3048,-19185,  9496, 14077,   20976, 14871, 21501, 22849, -3963,  2881, 22394,  3636,  3158,-11632,  -32548, -5081}, {-20255, 10021, 27318, -2256, -9760,  6534,  3471,-13446,  3603,-19892,   -3753, 13871,-26225, -6557, -6875,  4401,-10195, 21736, 30838, 26737,   14704, 25851, 32470,-20086,-31955, 16997,-11182, 25959, 12699, 13387,   29102,-28605,-31817,  6105, 21534,  6803,-21627,-22825, 19060,-20116,  -12016, -3822,-11371, -7504,-26749, -8290,-10761,  1474, 10908,  3653,  -27260, 19182,-18014, 24497,-12020,-21144,  7607, -1054,  4673,-32212,   21233, 24572,-19102,  5935,-10558, 15411, 16845, -1071,  6349, 24966,   13315, 13447, -2943,  9452, 12832,  9823,-21741, 11916, 29325, 25836,   11950,-23999,-26906,  8822,-12072,-31481,   993,-20406, 11425, 25462,    1277,  8489, 24406,-25940,-13127, 23390, -2048, 28834, 12634, 20038,   -8739, 25627,  7141, 23321,-30336, 17800, 12379,-13309,-10054,  4795,    3892, 16498, -8844, 11612, 18223,-20242,  4312, 15800, 31096,  2412,   29721,-15344,-31187, 27645, 20568,-30060, 23024, 27140,  7386,-11661,  -25354, -8646, 29572,-26773, -7578,-26992,-19407, 27994, 11320, 19361,  -17628,  8152,-25453, -6870, 17425,-28286,  2073,  4757, -3104,-16497,   27739, 27471, 25373,-27214,  2971,-31184, 11791,  -903, 27540,-21715,  -27251, 13888}, {  4136, 27236, 10300, -6212, 16940,-24101, 14646, 18073,-21037,-25891,   14253,-10959,   634,  1801, 11283,-22396, 31515,-29532, 23966, -1264,   -2642,-31356,  -980, 18081, -5329, 31195, -4543, -7518,-17481,-22323,  -29690, 21945,-21029,  -262, 32336,-21779, 14373,  -212, 16336,  9807,    8908,  6939,-17682,  3216, -6650, -9384, 11519,-12574,-16336,-10768,   -5179, 21136, -6338, 25011, 19039,-10250,-32042,-16520, -2625,-14888,   11962,  7393, 22529, 18204,-29142, 11254,-20686, -7980, 28657, 13002,   18218, 10702,  2905,  8632,-27945, -2361,-25494, 26926, 27904, -6382,   -7074,-31682,-22508, 21998,  6232, 23384,  5530, 15874, 32214, -2427,   19812,  1405, 12214, 28366, 10513, 14096, 21243, 20143, -8221, 30622,  -11947,-17027, 16009,-12563,-11123, -5201,  3074,-10733,-21691,-19959,   20059,-23963, 27585, -7139,-30451, 26688, -6703,  9502, 22394, 32161,   -8978,   665,-24602, 20450,-19400,  1072, 10930, 31043,  8637,-22241,   -9698,-23229,-16149, 13374,   517,-16190,-11167,-16785,  6002,  7749,   12336,-22494,-27310,-16609,-29974, 32366, 26975,-25349, 31220,-18072,  -17808,-13190, -6298,-22932, 25955, 12271,-31560,  6897,-15599, 18566,   -7530, -2112}, { 31910, 12277,-32037, 18752, 24083,-10088, -4818, -6311, -1791, 16278,   -2777, 17502, 30435,  3630,  9175,-22266, -3984, 14025, -1755, 20489,   -9351, 16875,-21063, 28239,-10424, 28288, 25520, -8431, 27175,-13372,  -24230,  8248,  6390, 22896, 18454,  4368, -2787,-11880,  4253,-11070,    5212, 31219, 27788, 19976, 30823, 31082, -1971, 12286,-16215, 12380,   16422, 27936,-27301, 28187, -4951,-10112, 23300, 12801,  5002,  3696,   13701, -6688, 19371, 22446, -9128,  8482,-28171,-22033,-23647,-10262,   -8167,   720, -8688,-23206, 24834,-10965,-32564,-14243,-12517, 19327,    9154, -8643, 20911,-13604,  3291,  3371,  3868, -5877,-26939, 31634,   16700, 23318,-10985,-31110,-24884,-14740,-29965, 22306,-22163,-11085,  -18416,-16828, -8278, -9089,-17230,  7295, 28928,  6382, 22618, 22233,   28606,-24945,  6731, 30067, 32033,-24742,-29350, -6592, -4337, -5338,    8049,-14879, 28231,-15657, 32630,  2684,-20253, 14681, 30209,  1494,  -26046,-23462, -5062, 15850,-17227, 20555, 29122,-31688,-17246, -4124,    8851,-28741, 28494,-15095,-10488,-22403,  3327,-19738, 20162, 29157,     647, 24368,  6093,  2735, 19330,  9706,-23346,-29618, 20986,  1503,  -15240,-16201}, {-10033,-12976, 30912,  7197, -6710, 26479, 11132, 30729,  6047, -8391,  -24010,-25119, 16172, 30444,-25554, -8029,  3469,  8369,  8350, 32250,   29149, 25074, 14687,-25240,-20807, 18989,-29661, 16600, 29176, 22865,   14335, 10767, -8085, -8987, 29021, -4255,-19326,   360,  9329,-10310,   20540, 16664,-11383,  5834,-25528,   -49,   215,  6649, 16836, -3605,   12814, -8753, 27627,-28345,  6191, 24253,-22844, 26559, 24421,-28315,   -8381,-18438,-16816,-29132, -7453,  5551,   569,    17,-29353, 20068,  -29000, 11425, 23813,-12667,-12467,   364,  8137,-25509, 22004,-22703,   32234, 14279,  4575, 11204,-20433,-16403,-14986,-25365,-20916,-31010,  -30523, -5905,-18074, 28393,-14694, -3313,-10833, 22557,-20571,  5907,   24905, 31044, 32241, 31173,-22544, 17814, -4014, -8141,-15314,  2019,  -32700, 12281,-26779,-24167, 27077, 31495,  9165, 22017,-26625,-15608,   -1807,-11723,  5445,  5917,-20769, 14795,-28541, 13749,-21766,-13471,   -1209, 13191,  5994,-19790,-31215, -9783,-15196, -9092, 23272,-15989,  -24300,  1991, -9421,-32198, 12862,-18615, 10335, -1426, 11185, -5704,  -25925,-12858, 20392, -4939,-17760,-15986, 18333, 27069,-20149,-13754,   26352, 23858}, { 13599, 32565, 24112,  3591,  5745,-22992,-30781, 27932, 13459,-28665,   29805,  2110, 12601, 13794, 26612, -9149,-29692, 30183,-14880,-23895,    8236,  1019,-26130,  5549, 23878,-18519, 26538, 20549,  6673, -3917,   27277, 28022, 17357, 30667, 15893,-13266, 18155,-28160, 13439, -4241,   -1156, -7776, -5773, -2404,  6660,-27224, 11098,-31941,  3775,-11356,   21016,  6107, 10795,  5630,  3412, 12435,-14652, 16159,-23543, 31479,   29774,-14385,  8616, -3815, 27201, 19976, 29212,-19104,-12287,-14722,   30151,  1532,-18867,-14324,  5288, 15684,-18805, 23466, 15693,  7281,   15214,  2190,  -165, 30760,  1258,  5648,-18791,-15757, -7830, 12189,  -31179,  6656, -1021,-16329, 10745,-24859, -5887, -7132, 16061,  9401,   15126,  8359, 25652, -1420, 18456, -1476,-28195, 13873,-26713,-26104,  -12977,-16086,  5003, 10812, 19996, -2157, 30579,-12242,-17089,  7633,   25358, 28872,  6945,   851,-23916,-19685, -9019, -2281,  6701, -1891,     704, 10944, 27687, -6339,  5359,-25075, 20821,-21229, 30814, 28027,     247, 26824,-13375, 27862, -1286, -1381,-10768,-26944, -6053, -9836,  -21416, -6273,  6790, 17122,-10000, 26269, 20570,-18311, -4920,-26100,  -30697,-25867}, {-28190,-24615, -9827, 25773, 18617,  2634, 28958, -7790,  4603,  2807,  -13237, -5710,-18385,   908, 28894,-12689, 30056, 18923,-29008,-10911,   26318,-32337, -1829,-17618,-20618,-10266,-15768,  8843, 14025,  6574,  -27621, -5426, -5432, -5188,  7158,-22495, 19108,-12458,-27842,-25886,  -10392, 12312, -7480, 28455, 26851, 24671,-28422, 27110,-24248, -3595,   13677, 32443,-18285, 21122, -6626,-13854,-18266, 18249, -3228,  4180,    4411,-14833,  8202, 28317, 27339,-24629,-24111, 24993, -5474,-22057,   27264,-24724, -7202,-29576,   253, 24393, 31312, -1310, -1641, 13619,   29313,  1940,-12459,  5271,  7245,-19679, -1321,-19513, -7995, 25370,   -8305, 10370, 10868, -4543, 32332,  -787,-31730,-24050, -9893,-30246,  -16220, -2224,  9959, 25895, 26991, 31963,-11631,  4325,  1934, 24158,  -23975, 12179,-22051,-29781,  3617, -9267,-28748, 15871,-27888, 20078,    -202,  4103,-11663, 28747, 16366,   679,  9024, 27679, 10601,-31414,    8539,-30165,-16979,  2874, 15518,-11711,  1089, 22696, 26306,-21109,  -22663,-24433, 18456, 28703, 10544, 27503, 22887, 22504,-15277,-10256,   -5391, 15794, 20348, -1193, 30755,-25046, 28211, 31438, 15520, 13013,   -9246,  6303}, {  7788,  6177,-28125,-18463, -4404,  4558,-21066,-18181,-18169,-22882,  -30019,-24596,-29191,-26886, -1571,-26104, -2074, 20647,-31690,-28445,  -30080,-21101,-21212,  5676,  1605,-30057, -1054, 16056, 30153,  4299,   31210, -1340, 27641,-30916, 32471, -7667, -2178, -5984, 25845,-12611,  -20684, 31533, 10230,  9037,  6468, 28062, -8537, 14857,-25054,-22063,   29836, -2713,-28759, 15996, -4557,  6074, -7878,-17550,  4599,-21977,   31143,-11798,-28441, 20863,-10425,-15076, 10826, 22498,  -977,-21668,  -12077, -5737,-26870,-27872,-28614, 11595,-13078,-14215,-10903, -6660,  -14173,-28324,-21193, -2570, 27633,  1242,-28710,-18594,-16814,-19417,  -12824,-11006,-18588, 21002, 25096, 16679,-13873, -8908,-12995, -4911,  -30115,  6510, 21990,  -842,  6567, -7268, 20503, 18231,  2634, 20932,   -7702,-27109, 32755,  6771, 28501,  5454, 20358, -6136,-19111, -9783,   28514,-17886, 22754,-23168,-26331, 14059,  7123,-18742,    39,-26850,  -28524,-12682,  9031, 25871,-19592,-13321, -8738, 14882, 14883, -9400,   22322, 20437,  8787, 13451, 11343,  8768, 28034,-19432,-18340, -9805,   22676,  9947,  -967, 23449,-18849,  3149,-22446, 22452, 20654, 21062,  -30556, 24551}, { 28282, 32280,  -368,-25180,-31433,  2107, 23940,-16459, 15113,  6046,   -8604,-26995,-17448, -3085, 28983, -6250, 12411,  2175,   609,  5462,   22359,-28815,-31424, -9840, 20657, 14351, 22632, 12842,  8370,-11022,   30482, 15527,   253,   497, 14324,  9190,-31213,-15437, 21653, 22477,   30064,-19230, -1104,-10382,  7001, 15180,  7859, 20262, 29904, 11268,  -13776,  -190,-25402,  9053, -1687,-14181, 30749, 24821,  1580,-31976,   26917,-13652,-20252, -5432,-26250, 21615, -5002,-22410,-17398,  2630,  -32542,-20601,   413,-23401,  2005,-12315,-17654,  8804, 27900, 11989,  -12474, 11159, 23263, 28502, 13074, 25945,-19933,  2287,-21279,-18176,  -26879, 29184,  9234,-32082,-23904, 31163,-14813,-16406, 15564, 14823,   27563,-23475, 22806,-28943, 32408, 13920,-16371,-13041,  7369, -5579,    -882, 11799,-18067,  7373, 13929, 14209, -2127, -1719, 22821,  -397,   15398,  5753,-14078,-14708, 16741,-31447, 22984,  8241, 31224, 28755,   -8809,-14942,-30777,  4206,-10225, 30355, -6129, 16268,-23223,-19400,   29596,  5601,-14034, -7497, 10404, 28454, 10950, -2262,-22317, 16418,  -20251,-16455, 17657,  6900, -4639, 32301, 12653, -3137,-31588,-12882,   21257,-15931}, { -5288,-28847,  4929, 28909,-16778, 32159,-11228, -6249, -3868, 11688,   12622,-31491, 32621,-28642, 22530,  4988,-23096,-14513,  9013, -9365,   -4362,-18243, 15675,  2320,-11341, 23088, -8280,-21198, -8641, 27649,  -15964, 16712,  -529,-17917,-32688, 21539,-27809, 11485,-16513, 25027,    4112, 32374, -1677, -1186, 13560, 28212, 17071, 13697, 10364, 30973,  -14760,  8406, 28731, 24125,-26236, 21896,-26792, -6577, -5011,-31916,    2562, 15772,  4633,  7133,-18977, 27325,-27124,-22576, 25263, -3234,  -15361, 12033, -4916,-26983, -5294, -9545,-27522, 13782,-12723,-29268,  -31367,  -385,-32136,-24430,-15762,-21010, 10904, 31739,-27593,  9844,   -5419,-31070,-16736,  5538, -8358,-16486,  5697,-23873, 26761, -8896,   10264, 16714, -5004,-25564, -7598,  5563,-19956,   643,-12901, 12600,  -29705,  7051,-27566, 29981,  6711, -3977,-21579, 18336,  1305, 16012,  -30776,-31316,-18834, 23529, 27305, 29493, -4173,  7699, 26287,-29312,   29488,-12645,-14899,-10551, 18954, 13233, 10079,-31840, 19851, -5243,  -20630,-29626,  2541,  1182,-18279, 30478,-24082,-24610, -3435,  4405,   10696, 28183,-24886, -2181,  2149, 10850,-29299, 12632, 22836, 31473,   21746, 15300}, { -1275, -6919, 27818, -1028,  9694,-31544, 16112,-23774,-13530,-18310,  -32305,-21196,-21447,-21290,-12776, -9103,-25866, -3030,  6202,  3617,  -19337,  8769, 21284,-19409, -3098,-29252,-18152, 14590,  8718,-12465,   15580, 18987,  1561,   181,  -393, -9775,-22006,-14784, 17080, 25878,   19728, 20025, 30822, -4117,  4373,-22421,  6047,  4385, 15726, 27289,   27901,-24573,-31710, 29194,   523, 30790, 25848,  5930,-23950,  1074,   23225,-19154, 13294,-15292, 12306, 22586, 23847, 24816, 11344, 20496,   28575, 13615,-16358, 22290, 11277, 25826,  3560,-21469,-32736, 30589,  -32447,-16147,-25930, 24670, -2115, 17366, 26300, 26504,-16496, -1014,  -21579, 19606,-24736,-13473,  7291, -5124,  -332, 18692, -1598, 30116,  -11639, -3805, 16581, 23389, 25282, 20744,-14042, 27517,-22139,  4204,    6468, 21858, -7973,  6117, 18744,-14552, 26460, 18909, 22463, 18411,    -947, -5316, 26744, 30592, -8490, 30361,  5025,-19566, 12906,-24979,   23165,-27452,  8725, 20298, 25706, 10192,  4083,  -416, 20660,   -62,   31577, 10580, -5222,-23680,-27825, 19518,-30949,-24966,-27276, 32681,   24985,-24598,-17984, 21275, 21772,-24049,  2915,-27519,  7921,-15185,     944, 11388}, {  2995,  8668,-21980, 22057, 30192, 23987, -3444,-10799, -8396,-15767,   18410,-25283,  2097, 25188, -9917,-17786,  8298,-10814,-20011, -5590,  -32675, 21118,  9146, 21364, 13904,  9977, -3829, 10871,-10045, 17550,   32100,  3029,-30554,-10783, 10837, 22383, 15011, -9754, 26769, 11372,  -27878,-21618,-19328, 20229, 29792,  2232,-14843,-20756, 31681,-14045,    -793, 12565, 12015,    -5,  3885, 25501,-14428, -9939,  4530,  5825,    8906,  9662, -5022, 11253,-14706, 10259,-20029, -4772,-14885, 25858,  -28661,-16963, 30519, -6334, 23445, 27140,  9418, 31116,-25006, 10134,   26962,-25781, 27024,  1926, 29120, 18125,-20163,-29489,  9345, 12672,   23348,-22084,-22746,  2411, -6951, 21631,-25757, -5378,-25825, 20947,   12314, -7242,  -889,-17483,-32066,-29637,  7656, 17368,-21979, -8824,   17209,-24543,-26059, -4747,-24670,-32106,-27777,-25191, 31962, 18398,  -11046, 12308,  4257,-32126,-25827, 17925,-15737,  9041, -6927,  4463,  -12257, 14761,-14735,-23546,  7808,-17391, 28548, 17312,  5385,-30581,   -7288,  9683, 22388, 11135,  8200, -9897, -3412,  2579, 23359, 16652,    9507, 12558, -5604,-31802, -8707,  4532,-31685,-30757, 15633,  7898,    4382,-26083}, {-16550,  7264, 22186, 30034, 32513,-13968,-14442, 15577, -1649, 23651,   -7154,-28248, 27781, 28950, 20134,  3466, 31916,   746,-25082, 18659,   23346, 18838,  1708,-26372, -7498, -8989,-22740, -9818, 24580, 18314,   -1066,-30980,  6905, -7462,-29058,-32050,-28534,-28473,-17718,   971,   17619,  3781, 23568, 16298, -9712,  7803, 19810,-23716,  3714, 29010,    -342,-20941,-17885,-28647,-25077, 31750, -8186, 15801,-14537, 11033,    6470, 22176, 20828,-24767,-27461, -7953, 14166,-24382,-18311, -9481,  -30223,-23347,  7422, 19188,  9145,-17627, -8370, 15521,-23513, -7031,  -31766, 27152, 26567,-13001,-11306,  -329,-29100,   833, 14335,-18985,  -13515, -7857,-24397, -8928,-28547, 15855, -8278,-30000, -1283, 17504,   -3701,-20365, 18028, -1385, 16606, 25814, 26172, 17895,-27281, 13932,   29988, 28348,  3195,  8196, -9675,  2238,-25414, 32252, -5839,-26428,   -9552,-16830, 19433, 30875,  1485,  9943,  4610, 21436,  3207, 11481,    9133, 12633,-13991,-11595, 18029,  7483,-12508,-23475,  5652, 19744,     337, 19733,-16979,-24809,-26131, 29937, 19417,-16083, 18545,-30217,   14992, -3315,-24226,  2963,-12552,-27664,  1078, 32304,-12408,-22833,   31161,-10932}, { 31464, 29275, -2011, -3507,  4709, -4598,-21974, 19952, 18514,-15660,  -13399,-22694,  8091, 24093, 24933,-22712, 26275, -7485,  1159,-31945,   27027, 23178, 30996,  5047,-20479,  9085, 16805,  8859, 29987, -9258,   -4351, -3997,  2166, -7003, 32602, 15063,-15294, 15910,  2741,-11524,  -25947,-29616, -5388, -5845,-30912,  2690, 10439, 18712,  6922,   680,  -25775, 26576, 12506,-15493, -5230,-31147,  9945, -2484, -5109,-25612,    6028,-10189, 25542, 12808, -3376,-29935, 32099,-13733, 10220,-25202,   23620, -3155,-27713, 17349,-18726, -7870, -1361, 30545,  1758,  3212,   15642, -9295, -9980,-12891, 32067, 31025, 22843, 31971,-32759, 14470,  -28407,-12007, 29079,   740,-24285,-25906,-31807, 26024, 31055,   631,   -1342, 29759,  2116, 18075, 29793,-11512,-13898, -9698, 18428,-21834,  -30777, 10918, -3346,-16133,-16628, -1945, -9823,  6425, -6064,  8702,   26261,-11973,-19579,-14663,  5023, 17768,  6279,  -201,-13743, 17365,  -24223,-16551, 32364, -5438, 14945,  6697, -5641, 13504, -5532, -7359,    1303,-26964,   -25, -1518,  3864,-14791,-26919,-24638, 10736, 22875,   25155,  3649, 24932,-21587,-28104,-29406, 12740, 11175,  2304, 30931,   20051,  6466}, { -2422,-10227, 13605, 11934,  5034,-24389, 26861, 23105, -1986, 26059,   -7251,-18730,-17907, 15064, 16397,  3648,-25475, 22159, 18293,-16053,  -16589, 29891,  -584, -6248, 30287, 13951, -4119, -2941,  -535, 18796,   -4522, 17504, -6707,  5964,-10810,  9809,-13065,-31349, 13933, -9616,    -755, 26947,-12251, 30456,-15035, 21707,  6348,-21470,-23508,-25421,    4639,-20860,-18269, 14617, 10664, 24595, 15817, 26832, 26581,  8402,  -16843, 27916, 30328, 11007, 25779, 16892,-26886,   696, 16047,-25709,    6895, 30098,  2384,-19982,-30053, 12218,  1863, -7777, -2220,-19983,    1847, -1813, 25332, 22073,   907, 27795,-28825, 19242,-16960, 20222,   11385, 10880,-29370, 14229,  4075, 20603,  2947,-13623, 21964,-18071,    1940, 26667,-20522, 31728,-13020,-13523, 17814, -6559,-22087,  5061,   -6043, -4900,-27554,  6660, 23133,  8525, 11391, -5074,-13663,-19577,  -15608, 24034,-23381,-17118,-14711, 22821,   865,  7651, 27094,  1330,  -18155,-17482,-26739,  9412,-22478, -9428,-29264, -9384,-18302,  8644,  -17774, 27081, 11148, 20053, 27884, -1855,-12577, 13455,-20577, 18040,    7492, -9855,-31401, -6030,  9999,  3568,-13130, 16778,  2131,   814,  -28112,-15106}, { 19518, 25647, 20598, 30528, 11703, 13775,-29497,-21279,-21437, 16161,  -10233,-28242,-31981, 19387, 11707, -1467,-14716,-32664,-11181,   -74,    5768,  1947, 12590,  7637,-23083, 30561, 10786,  8667,-17203,-18234,   14333,-12067,  9176,-13217,-16228, 22616, -3892, -8569, 21511, 14225,  -27980, 28113, -4261,  3123,  9386,  8943, -7537, 13415, 16359,  9362,  -28418, -8699,-31607, 18636, 32401,-19592, 17411,-28580,  8739,-31149,    3395, 16683,-23802, -9872, -6531,-30143, 24886, 15121,-27207, 27756,   30020,-25595,-31653,-14846, 31838, -1692,  4807,-11571,-22251, 14150,  -12166, 30155, 17084, -4723, -2139, 32057,-20305,-14731,-23112,  3655,   32392, -8622,-25116,  3480, 25500,-30826,  9425,-27535, 21942, 22686,    3348,-32559, -2875,-25297,-24135,-25159,-17680, 25082,  7361,-22139,   27375, -1262,-24041,-14081, 30597,-17729,-12933, 22079,-23812,  3389,    4361, -5915, 27239, -5010,-15263,-14068,-11664,-13340, 17683,-30842,   21056,-32403,  7961, 25099, 20523, 24698,-14177,-17782, 22884,-28341,   12217, 30649,-19346, 22933, -8185,-24797,-26639,-29538,-27450, 32277,  -22312,-11803, 21256, 13704, 20751,-19963, 19007, -9532,  4220, 13535,  -22910, 13484}, {-20899,-32615,  3465,-32760,-27893, -7520, 19534,  6053,  8528,  1136,   29134,  -811, 21106, 32444,-16865,-21144,-29566, 12847,  6248,   556,   31287, 32564,-12140, 19326, 15543, 23155, -7108, 12127, 25360,-29332,   16002, 12483,-12692,-21513,-30076,  1672, 32367,  6408, 10039, 31132,   29212,  -290, -1053, -2338,-31591, 22357, 18723,  3186,-30904,-21850,   22914,-17315,   463,-25179, -4183, 24912,-26842,  8812, 29958,-23266,    -489,-31808, 11857, 24432,  -746,-32218,-21824,-27585, 29527,  9586,   -2058,   707, 32738, 23403, -7971, 20634, -7663,-28343, 22654,-10347,  -24556, 10434, 20172,-25164,  1399,-14261, 25371, 18311, 18991,  1441,   -6514, -2295,-26957, 12173,-25764,-19581, -5339,  8958,  1519, 12668,    4975,-22439, 11652,-29576,-29876,-11534,-31969,-29354,  -384, -5065,  -11402, 18877, 31002,-11329,  2955,-15972, 21016,  5992, 20574,-16405,  -28401,  2342,-25877, 29589,-20023, -6726, 23313, 26438,-30791,-27794,   -8891,  8360,  9948, 14985, 10488,-11170,-27153,  5178,-13909,-28401,   -8232,-27085,-14337,   182,  4973,-26336,-21941, 16418,  4990,-29644,   -6315,-32589,-27995, 15650, 13256, 31346, 29877,-16298,-15868,-12446,   13930, -9946}, { -6183, -2615,-30506,-19474, -4131,  6275,   233, 15881, 28674,  3727,    5679, 27453,-23394,-23385, 20048, 19969,-19308, 27189,  9958, -7178,   24578, -3256, 18352, 24189, 11398,  9420, 25674,-28510, 23660,-19086,  -10494,  9493, 17480, 28505,    92, -9743,  9302,  9167, -8267, 17207,   -9367, -4594, 18999,  3602,-30604,-15926, 22197,  1321,-22822, 21434,  -13235, 16051, 27598, 26307, 23849,-10680,  3425,  1686, 26095,-23926,   30203, -8263,-17075,-15386, 31771, -6987, 30771,-20635,  -458, 27838,   21485,-12784, 15059,  4436, 11402,-16733, 28822,   579,-21782,-25626,   13881,  -190, 17832, 14589,-15358,  5033,-13001, 32043,  -233,  1017,    9421,-28840,  4663, 27012, -6553,  9869,-22000,-30870,-28141,-17498,  -29219, 29760,-12027, 21968,-20703, 13593, 20162,  1867,-31804,  9589,    6142, 31750,-29075,-25947,-15329, 26888,-30333,-20648,-12580,  8871,  -11037, 26539, 16643,-24172,-24915, -4673, -7639, 23934, 31245,-31016,  -12246, 12344, 31320, 12764, -6606,-31085, 18369, 14364, 25062,-24916,  -13996,-20860, 26667, 23215,  9584,-10087, 20750,  8452, 22169,  6911,   31199,-20273, 27896, 30487, 29803, 30228,-10058, -8715, -7113, 31799,   31536,  6790}, {-25302,-12002,  8630,  1177,   832,   367, -1641, 24515, 20810,  8570,  -22737, -9854, -3162,-28263, 19825,  1757, -3868, 32154, 22044,  1772,   -1069, -9155, 29248, 29611, 21258,   229, 11457, -4975,-31415, -6669,   30679, 14965, 22146, 18629,  8067, 17645, 27770, 23395,-24343, 11213,   13064, 23228,  7235,-25601, 12187, -3714,-24134,-11342, 14043,-10746,   20737, 16984, -9968,-14824,  8035,-19166,  5263,-19903, 15802,-15180,  -27060,-25221, 10903, 17254,-26773,  9512, 13533,  5636,  1976, 31695,   27286,  9513,-14154,  3457,-12981,  6046,-26706, 26910,-26956, -7046,    6462,  -333, 21993,-19968, 22914, 29736,-13325, 20689,-25166, 22414,  -30332,-16118,  5413,  2446, -2571,-16486,  5258,-13153, -7954,-19731,   -6392,-16555,-24960, 11633,  2795, 12890, -6316,  4869, 27043,-20591,   18493, 21904, -6805, 20517,  -386,  7074,  7947,-10727, 13828,-30871,    9307,  9699,  5471,-31682, 22870, 18174,-30970, -9096,  4438,-28832,   16467,  4699,  8235,  -960,-27712,-23688,  3092, -7032, 32396,  5776,   -7633, 27248, -9864,-24481,-32223,-24534,  5445,  7179, 26234,-13798,    3690,-16939, 23499, 20243,-25007, 10689,-13503, 30159, -5777, 17552,   25436,-15147}, {-25024, 25656,  3009,-18785,-12304,  7402, 22052, 22674,    99,  7448,   16336, 11245,-29079,-17985, -8692, 31775, 13067,  1342,  2885,-24537,    1704, 25755,-31039,-24841, -3205,-22624,  6502,-30803, -3550,-11956,   10475,-15230,-13199, 12972, 14701,-12630,-18633, -5082, 17148, 16322,   25665, -9473,-19236, 30651, -2166, 12619, 26954, 26328,-30106, 11037,    3815,-11384,  8418, -7090, 30561, 24764,  -586,  -249, 15813, -8781,  -25608,-22350, -9456,-10738, 18508,-24633,-30839, 10240, 25306,-30107,   27895,-19221,-13925,  -182, -9817,-30952,-26571,-27878,-16818, -2551,   21752,-18073,-27086,-19688, -6234,-12198,-31269,  7851, 29594,   305,  -32246,  3782,  1781, 12372,-24654, -9405,-10819, 17804, 14911, 22643,   19102,-25396, -6343, 20878,-15499,-12822, -1752, -7638,  4186,-21985,   25439,  8306, 16977,-17003, 27708,-27341,  1086, 17761, 23470, 11881,  -15057,-12605,  2309,-14105,-17873,-18752, 26584, 22141,-26543, -8528,  -24675, 32030, 29622, 16831,-24915, 17323, 19859,-25373, 29091, 21796,    6828,  4146,  1218,-25958,-19786,-25733, 32766,  6152,  5748, -5297,  -18599,-26475,  -929,  9793, 14505,-30663,-14897,-18202,-11007,-12364,   -8345, -5296}, { 15527,-18900,-27152,-21455,  7280,  2069, 22023,  5026,   390, 25298,   23871, 15791,-18419, 31172, 31269, 27122,-28703,-27079,-23762, 18912,   18416,  3066,-21911,-29413,  8673,